svm_type c_svc
kernel_type rbf
gamma 0.125
nr_class 3
total_sv 210
rho 0.00376174 0.842928 1.0464
label 1 2 3
nr_sv 50 50 110
SV
0 1 1:0.025 2:0 3:0.15 4:0 5:0.0809017 6:0 7:0.2 8:0 
0 1 1:0 2:0 3:0.15 4:0 5:0 6:0 7:0.175 8:0 
0 1 1:0 2:0 3:0.1 4:0 5:0.0559017 6:0 7:0.4 8:0 
1 1 1:0.05 2:0 3:0.2 4:0 5:0.28858 6:0 7:0.225 8:0 
1 1 1:0 2:0 3:0.15 4:0 5:0.450384 6:0 7:0.125 8:0 
1 1 1:0 2:0 3:0.125 4:0 5:0.303225 6:0 7:0.175 8:0 
0 1 1:0 2:0 3:0.2 4:0 5:0.111803 6:0 7:0.25 8:0 
1 1 1:0 2:0 3:0.15 4:0 5:0.353225 6:0 7:0.2 8:0 
1 1 1:0.1 2:0 3:0.175 4:0 5:0.293034 6:0 7:0.175 8:0 
0 1 1:0 2:0 3:0.225 4:0 5:0 6:0 7:0.325 8:0 
0 1 1:0 2:0 3:0.1 4:0 5:0.111803 6:0 7:0.275 8:0 
1 1 1:0 2:0 3:0.075 4:0 5:0.379837 6:0 7:0.025 8:0 
1 1 1:0.05 2:0 3:0.125 4:0 5:0.370766 6:0 7:0.125 8:0 
0 1 1:0 2:0 3:0.075 4:0 5:0.091257 6:0 7:0.125 8:0 
1 1 1:0 2:0 3:0.075 4:0 5:0.182514 6:0 7:0.125 8:0 
1 1 1:0 2:0 3:0 4:0 5:0.253225 6:0 7:0.2 8:0 
0 1 1:0 2:0 3:0.2 4:0 5:0 6:0 7:0.25 8:0 
0 1 1:0 2:0 3:0.2 4:0 5:0.0559017 6:0 7:0.25 8:0 
1 1 1:0 2:0 3:0.175 4:0 5:0.353553 6:0 7:0.075 8:0 
1 1 1:0.05 2:0 3:0.1 4:0 5:0.388909 6:0 7:0.075 8:0 
1 1 1:0.025 2:0 3:0.075 4:0 5:0.515357 6:0 7:0.3 8:0 
1 1 1:0 2:0 3:0.05 4:0 5:0.111803 6:0 7:0.1 8:0 
0 1 1:0 2:0 3:0.125 4:0 5:0 6:0 7:0.125 8:0 
0 1 1:0 2:0 3:0.15 4:0 5:0 6:0 7:0.125 8:0 
1 1 1:0 2:0 3:0.075 4:0 5:0.106066 6:0 7:0.025 8:0 
1 1 1:0.075 2:0 3:0.15 4:0 5:0.682898 6:0 7:0.075 8:0 
0 1 1:0 2:0 3:0.225 4:0 5:0.141421 6:0 7:0.275 8:0 
0 1 1:0 2:0 3:0.275 4:0 5:0.105902 6:0 7:0.225 8:0 
1 1 1:0 2:0 3:0.1 4:0 5:0.263416 6:0 7:0.125 8:0 
1 1 1:0.05 2:0 3:0.125 4:0 5:0.353553 6:0 7:0.1 8:0 
0 1 1:0 2:0 3:0.225 4:0 5:0.141421 6:0 7:0.175 8:0 
0.8833801596351197 1 1:0 2:0 3:0.175 4:0 5:0.167705 6:0 7:0.15 8:0 
1 1 1:0.025 2:0 3:0 4:0 5:0.350219 6:0 7:0.175 8:0 
1 1 1:0 2:0 3:0.05 4:0 5:0.419646 6:0 7:0.2 8:0 
1 1 1:0.05 2:0 3:0.025 4:0 5:0.480166 6:0 7:0.225 8:0 
1 1 1:0 2:0 3:0.05 4:0 5:0.258962 6:0 7:0.225 8:0 
1 1 1:0 2:0 3:0.05 4:0 5:0.541805 6:0 7:0.05 8:0 
1 1 1:0 2:0 3:0.25 4:0 5:0.253225 6:0 7:0.1 8:0 
1 1 1:0 2:0 3:0.1 4:0 5:0.303389 6:0 7:0.2 8:0 
0 1 1:0 2:0 3:0.1 4:0 5:0.111803 6:0 7:0.175 8:0 
0 1 1:0.05 2:0 3:0.15 4:0 5:0.0707107 6:0 7:0.15 8:0 
1 1 1:0 2:0 3:0.15 4:0 5:0.147159 6:0 7:0.1 8:0 
0 1 1:0 2:0 3:0.175 4:0 5:0.106066 6:0 7:0.25 8:0 
0 1 1:0 2:0 3:0.175 4:0 5:0 6:0 7:0.25 8:0 
1 1 1:0 2:0 3:0.125 4:0 5:0.232678 6:0 7:0.15 8:0 
1 1 1:0 2:0 3:0.2 4:0 5:0.201777 6:0 7:0.1 8:0 
0 1 1:0.025 2:0 3:0.225 4:0 5:0 6:0 7:0.225 8:0 
1 1 1:0 2:0 3:0.075 4:0 5:0.329673 6:0 7:0.15 8:0 
0 1 1:0 2:0 3:0.15 4:0 5:0.20306 6:0 7:0.25 8:0 
1 1 1:0 2:0 3:0.075 4:0 5:0.303389 6:0 7:0.15 8:0 
-0 1 1:0.725 2:0 3:0 4:0 5:0.65 6:0 7:0.05 8:0 
-0 1 1:0.8 2:0 3:0 4:0 5:0.75 6:0 7:0 8:0 
-1 1 1:0.55 2:0 3:0.025 4:0 5:0.325 6:0 7:0 8:0 
-0 1 1:0.625 2:0 3:0 4:0 5:0.6 6:0 7:0 8:0 
-0 1 1:0.525 2:0 3:0 4:0 5:0.681066 6:0 7:0 8:0 
-0 1 1:0.55 2:0 3:0 4:0 5:0.672323 6:0 7:0 8:0 
-0 1 1:0.65 2:0 3:0 4:0 5:0.595711 6:0 7:0.05 8:0 
-0 1 1:0.575 2:0 3:0.025 4:0 5:0.92716 6:0 7:0 8:0 
-0 1 1:0.6 2:0 3:0 4:0 5:0.675 6:0 7:0 8:0 
-0 1 1:0.7 2:0 3:0 4:0 5:0.611803 6:0 7:0 8:0 
-0 1 1:0.7 2:0 3:0 4:0 5:0.741257 6:0 7:0 8:0 
-0 1 1:0.75 2:0 3:0 4:0 5:0.556066 6:0 7:0 8:0 
-1 1 1:0.275 2:0 3:0 4:0 5:0.638416 6:0 7:0 8:0 
-0 1 1:0.675 2:0 3:0 4:0 5:0.530902 6:0 7:0 8:0 
-0 1 1:0.375 2:0 3:0.025 4:0 5:1.02522 6:0 7:0 8:0 
-1 1 1:0.15 2:0 3:0 4:0 5:0.769646 6:0 7:0.05 8:0 
-1 1 1:0.3 2:0 3:0 4:0 5:0.632514 6:0 7:0 8:0 
-1 1 1:0.4 2:0 3:0.1 4:0 5:0.476612 6:0 7:0.025 8:0 
-1 1 1:0.1 2:0 3:0.025 4:0 5:0.657843 6:0 7:0 8:0 
-1 1 1:0.3 2:0 3:0 4:0 5:0.532678 6:0 7:0.05 8:0 
-0 1 1:0.15 2:0 3:0 4:0 5:0.963964 6:0 7:0.025 8:0 
-1 1 1:0.25 2:0 3:0.025 4:0 5:0.775548 6:0 7:0 8:0 
-1 1 1:0.15 2:0 3:0.075 4:0 5:0.623935 6:0 7:0 8:0 
-1 1 1:0.35 2:0 3:0.025 4:0 5:0.411803 6:0 7:0 8:0 
-1 1 1:0.425 2:0 3:0.05 4:0 5:0.411803 6:0 7:0.05 8:0 
-1 1 1:0.35 2:0 3:0.025 4:0 5:0.563416 6:0 7:0 8:0 
-1 1 1:0.325 2:0 3:0.075 4:0 5:0.472323 6:0 7:0.05 8:0 
-1 1 1:0.35 2:0 3:0.05 4:0 5:0.663744 6:0 7:0 8:0 
-1 1 1:0.125 2:0 3:0.1 4:0 5:0.80645 6:0 7:0.05 8:0 
-1 1 1:0.35 2:0 3:0.075 4:0 5:0.611803 6:0 7:0 8:0 
-1 1 1:0.3 2:0 3:0 4:0 5:0.605902 6:0 7:0 8:0 
-1 1 1:0.475 2:0 3:0 4:0 5:0.6 6:0 7:0 8:0 
-0 1 1:0.55 2:0 3:0 4:0 5:0.525 6:0 7:0 8:0 
-1 1 1:0.25 2:0 3:0 4:0 5:0.480902 6:0 7:0.025 8:0 
-0 1 1:0.35 2:0 3:0.05 4:0 5:0.900548 6:0 7:0.025 8:0 
-1 1 1:0.125 2:0 3:0 4:0 5:0.275 6:0 7:0 8:0 
-1 1 1:0.45 2:0 3:0 4:0 5:0.45 6:0 7:0 8:0 
-0 1 1:0.25 2:0 3:0 4:0 5:0.944537 6:0 7:0.05 8:0 
-1 1 1:0.275 2:0 3:0.125 4:0 5:0.468034 6:0 7:0.075 8:0 
-1 1 1:0.3 2:0 3:0.05 4:0 5:0.715357 6:0 7:0.05 8:0 
-1 1 1:0.25 2:0 3:0.05 4:0 5:0.700548 6:0 7:0 8:0 
-0 1 1:0.45 2:0 3:0.05 4:0 5:0.788416 6:0 7:0.025 8:0 
-1 1 1:0.3 2:0 3:0 4:0 5:0.425 6:0 7:0 8:0 
-1 1 1:0.3 2:0 3:0 4:0 5:0.493034 6:0 7:0 8:0 
-1 1 1:0.175 2:0 3:0 4:0 5:0.634126 6:0 7:0 8:0 
-1 1 1:0.25 2:0 3:0.05 4:0 5:0.793034 6:0 7:0 8:0 
-0 1 1:0.3 2:0 3:0.2 4:0 5:0.921258 6:0 7:0.025 8:0 
-0.8833801596351197 1 1:0.275 2:0 3:0 4:0 5:0.809455 6:0 7:0 8:0 
-0 1 1:0.275 2:0 3:0.05 4:0 5:0.836067 6:0 7:0 8:0 
-1 1 1:0.175 2:0 3:0.15 4:0 5:0.744318 6:0 7:0 8:0 
-0 -1 1:0.5 2:0 3:0 4:0 5:0.75 6:0 7:0 8:0 
-0 -0.2772091831843462 1:0.45 2:0 3:0 4:0 5:0.75 6:0 7:0 8:0 
-0 -0.650929054469943 1:0.4 2:0 3:0 4:0 5:0.775 6:0 7:0 8:0 
-0 -0.1615796665996256 1:0.9 2:0 3:0.075 4:0 5:0.497323 6:0 7:0 8:0 
-0 -1 1:0.8 2:0 3:0.075 4:0 5:0.647323 6:0 7:0 8:0 
-0 -1 1:0.75 2:0 3:0.075 4:0 5:0.697323 6:0 7:0 8:0 
-0 -1 1:0.7 2:0 3:0.075 4:0 5:0.747323 6:0 7:0 8:0 
-0 -1 1:0.65 2:0 3:0.075 4:0 5:0.797323 6:0 7:0 8:0 
-0 -1 1:0.55 2:0 3:0.075 4:0 5:0.897323 6:0 7:0 8:0 
-0 -1 1:0.5 2:0 3:0.075 4:0 5:0.947323 6:0 7:0 8:0 
-0 -1 1:0.45 2:0 3:0.075 4:0 5:0.997323 6:0 7:0 8:0 
-0 -0.6054733331651078 1:0.4 2:0 3:0.075 4:0 5:1.04732 6:0 7:0 8:0 
-0 -1 1:0.25 2:0 3:0.025 4:0 5:0.792705 6:0 7:0 8:0 
-0 -1 1:0.3 2:0 3:0.025 4:0 5:0.742705 6:0 7:0 8:0 
-0 -1 1:0.3 2:0 3:0.025 4:0 5:0.642705 6:0 7:0 8:0 
-0 -1 1:0.3 2:0 3:0.025 4:0 5:0.592705 6:0 7:0 8:0 
-0 -1 1:0.3 2:0 3:0.025 4:0 5:0.542705 6:0 7:0 8:0 
-0 -1 1:0.3 2:0 3:0.025 4:0 5:0.492705 6:0 7:0 8:0 
-0 -0.7191675610949324 1:0.75 2:0 3:0 4:0 5:0.6 6:0 7:0 8:0 
-0 -1 1:0.65 2:0 3:0 4:0 5:0.7 6:0 7:0 8:0 
-0 -0.3245042237097794 1:0.6 2:0 3:0 4:0 5:0.75 6:0 7:0 8:0 
-0 -0.06450393434995542 1:0.575 2:0 3:0 4:0 5:0.45 6:0 7:0 8:0 
-0 -0.1653011005623352 1:0.425 2:0 3:0 4:0 5:0.45 6:0 7:0 8:0 
-1 -0 1:0.175 2:0 3:0.025 4:0 5:0.191421 6:0 7:0.05 8:0 
-1 -0 1:0.175 2:0 3:0.025 4:0 5:0.226777 6:0 7:0.05 8:0 
-1 -0 1:0.175 2:0 3:0.025 4:0 5:0.212132 6:0 7:0.05 8:0 
-1 -0 1:0.175 2:0 3:0.025 4:0 5:0.247487 6:0 7:0.05 8:0 
-0.2405301703138371 -0 1:0.2 2:0 3:0.025 4:0 5:0.247487 6:0 7:0.05 8:0 
-0.8863888155957307 -0.5305643634688663 1:0.2 2:0 3:0.025 4:0 5:0.247487 6:0 7:0.05 8:0 
-1 -0 1:0.15 2:0 3:0.025 4:0 5:0.247487 6:0 7:0.05 8:0 
-1 -0 1:0.15 2:0 3:0.025 4:0 5:0.247487 6:0 7:0.05 8:0 
-1 -0 1:0.1 2:0 3:0.025 4:0 5:0.247487 6:0 7:0.05 8:0 
-1 -0 1:0.1 2:0 3:0.025 4:0 5:0.247487 6:0 7:0.05 8:0 
-1 -0 1:0.1 2:0 3:0.025 4:0 5:0.272487 6:0 7:0.05 8:0 
-1 -0 1:0.1 2:0 3:0.025 4:0 5:0.272487 6:0 7:0.05 8:0 
-1 -0 1:0.1 2:0 3:0 4:0 5:0.272487 6:0 7:0.05 8:0 
-1 -0 1:0.1 2:0 3:0 4:0 5:0.287132 6:0 7:0.05 8:0 
-1 -0 1:0.075 2:0 3:0 4:0 5:0.337132 6:0 7:0.05 8:0 
-1 -0 1:0.075 2:0 3:0 4:0 5:0.337132 6:0 7:0.05 8:0 
-1 -0 1:0.075 2:0 3:0 4:0 5:0.337132 6:0 7:0.05 8:0 
-1 -0 1:0.075 2:0 3:0 4:0 5:0.337132 6:0 7:0.05 8:0 
-1 -0 1:0.075 2:0 3:0 4:0 5:0.337132 6:0 7:0.05 8:0 
-1 -0 1:0.075 2:0 3:0 4:0 5:0.337132 6:0 7:0.05 8:0 
-1 -0 1:0.075 2:0 3:0 4:0 5:0.337132 6:0 7:0.05 8:0 
-1 -0 1:0.075 2:0 3:0 4:0 5:0.337132 6:0 7:0.05 8:0 
-1 -0 1:0.075 2:0 3:0 4:0 5:0.337132 6:0 7:0.05 8:0 
-1 -0 1:0.075 2:0 3:0 4:0 5:0.337132 6:0 7:0.05 8:0 
-1 -0 1:0.075 2:0 3:0 4:0 5:0.337132 6:0 7:0.05 8:0 
-1 -0 1:0.075 2:0 3:0 4:0 5:0.337132 6:0 7:0.05 8:0 
-0 -1 1:0.125 2:0 3:0 4:0 5:0.407843 6:0 7:0.05 8:0 
-0 -1 1:0.45 2:0 3:0 4:0 5:0.45 6:0 7:0 8:0 
-1 -0 1:0.025 2:0 3:0.05 4:0 5:0.617869 6:0 7:0 8:0 
-1 -0 1:0.025 2:0 3:0.05 4:0 5:0.611968 6:0 7:0 8:0 
-1 -0 1:0.025 2:0 3:0.05 4:0 5:0.661968 6:0 7:0 8:0 
-1 -0 1:0.025 2:0 3:0.05 4:0 5:0.711968 6:0 7:0 8:0 
-1 -0 1:0.025 2:0 3:0.05 4:0 5:0.761968 6:0 7:0 8:0 
-0.864236471722061 -0 1:0.025 2:0 3:0.05 4:0 5:0.811968 6:0 7:0 8:0 
-0 -1 1:0.175 2:0 3:0.05 4:0 5:0.811968 6:0 7:0 8:0 
-0 -1 1:0.275 2:0 3:0.05 4:0 5:0.811968 6:0 7:0 8:0 
-0 -1 1:0.325 2:0 3:0.05 4:0 5:0.761968 6:0 7:0 8:0 
-0 -1 1:0.375 2:0 3:0.05 4:0 5:0.761968 6:0 7:0 8:0 
-0 -1 1:0.425 2:0 3:0.05 4:0 5:0.761968 6:0 7:0 8:0 
-0 -1 1:0.5 2:0 3:0.025 4:0 5:0.761968 6:0 7:0 8:0 
-0 -1 1:0.55 2:0 3:0 4:0 5:0.761968 6:0 7:0 8:0 
-0 -1 1:0.6 2:0 3:0 4:0 5:0.726612 6:0 7:0 8:0 
-0 -0.954859205178203 1:0.65 2:0 3:0 4:0 5:0.726612 6:0 7:0 8:0 
-0 -0.3719087751223518 1:0.8 2:0 3:0.075 4:0 5:0.3 6:0 7:0 8:0 
-0 -0.2889079530824894 1:0.55 2:0 3:0.075 4:0 5:0.258962 6:0 7:0 8:0 
-0 -1 1:0.5 2:0 3:0.075 4:0 5:0.294317 6:0 7:0 8:0 
-0 -1 1:0.45 2:0 3:0.075 4:0 5:0.319317 6:0 7:0 8:0 
-0 -1 1:0.4 2:0 3:0.075 4:0 5:0.319317 6:0 7:0 8:0 
-0 -1 1:0.275 2:0 3:0.075 4:0 5:0.369317 6:0 7:0 8:0 
-0 -1 1:0.475 2:0 3:0 4:0 5:0.455902 6:0 7:0 8:0 
-0 -0.1064163096451126 1:0.525 2:0 3:0 4:0 5:0.455902 6:0 7:0 8:0 
-0 -1 1:0.525 2:0 3:0 4:0 5:0.455902 6:0 7:0 8:0 
-0 -1 1:0.475 2:0 3:0 4:0 5:0.455902 6:0 7:0 8:0 
-0 -0.7450147674396779 1:0.425 2:0 3:0 4:0 5:0.455902 6:0 7:0 8:0 
-0 -1 1:0.15 2:0 3:0 4:0 5:0.880902 6:0 7:0.025 8:0 
-0 -1 1:0.15 2:0 3:0 4:0 5:0.830902 6:0 7:0.025 8:0 
-0 -1 1:0.15 2:0 3:0 4:0 5:0.830902 6:0 7:0.025 8:0 
-0 -1 1:0.15 2:0 3:0 4:0 5:0.725 6:0 7:0.025 8:0 
-0 -1 1:0.15 2:0 3:0 4:0 5:0.675 6:0 7:0.025 8:0 
-0 -0.6556206370329799 1:0.15 2:0 3:0 4:0 5:0.625 6:0 7:0.025 8:0 
-0 -1 1:0.15 2:0 3:0 4:0 5:0.625 6:0 7:0.025 8:0 
-0 -1 1:0.15 2:0 3:0 4:0 5:0.625 6:0 7:0.025 8:0 
-0 -1 1:0.15 2:0 3:0 4:0 5:0.625 6:0 7:0.025 8:0 
-0 -1 1:0.15 2:0 3:0 4:0 5:0.630902 6:0 7:0.025 8:0 
-0 -1 1:0.15 2:0 3:0 4:0 5:0.630902 6:0 7:0.025 8:0 
-0 -0.4509616954178746 1:0.15 2:0 3:0 4:0 5:0.555902 6:0 7:0.025 8:0 
-0 -0.9270782364764198 1:0.2 2:0 3:0 4:0 5:0.455902 6:0 7:0.025 8:0 
-0.008844542368371289 -0 1:0 2:0 3:0 4:0 5:0 6:0 7:0 8:0 
-1 -0 1:0 2:0 3:0 4:0 5:0 6:0 7:0 8:0 
-1 -0 1:0 2:0 3:0 4:0 5:0 6:0 7:0 8:0 
-1 -0 1:0 2:0 3:0 4:0 5:0 6:0 7:0 8:0 
-1 -0 1:0 2:0 3:0 4:0 5:0 6:0 7:0 8:0 
-1 -0 1:0 2:0 3:0 4:0 5:0 6:0 7:0 8:0 
-1 -0 1:0 2:0 3:0 4:0 5:0 6:0 7:0 8:0 
-1 -0 1:0 2:0 3:0 4:0 5:0 6:0 7:0 8:0 
-1 -0 1:0 2:0 3:0 4:0 5:0 6:0 7:0 8:0 
-1 -0 1:0 2:0 3:0 4:0 5:0 6:0 7:0 8:0 
-1 -0 1:0 2:0 3:0 4:0 5:0 6:0 7:0 8:0 
-1 -0 1:0 2:0 3:0 4:0 5:0 6:0 7:0 8:0 
-1 -0 1:0 2:0 3:0 4:0 5:0 6:0 7:0 8:0 
-1 -0 1:0 2:0 3:0 4:0 5:0 6:0 7:0 8:0 
-1 -0 1:0 2:0 3:0 4:0 5:0 6:0 7:0 8:0 
-1 -0 1:0 2:0 3:0 4:0 5:0 6:0 7:0 8:0 
-1 -0 1:0 2:0 3:0 4:0 5:0 6:0 7:0 8:0 
-1 -0 1:0 2:0 3:0 4:0 5:0 6:0 7:0 8:0 
-1 -0 1:0 2:0 3:0 4:0 5:0 6:0 7:0 8:0 
-1 -0 1:0 2:0 3:0 4:0 5:0 6:0 7:0 8:0 
