svm_type one_class
kernel_type rbf
gamma 0.5
nr_class 2
total_sv 28
rho 5.88859
SV
1 1:0.725 2:0 3:0 4:0 5:0.65 6:0 7:0.05 8:0 9:0.8 10:0 11:0 12:0 13:0.65 14:0 15:0.1 16:0 17:0.65 18:0 19:0 20:0 21:0.65 22:0 23:0 24:0 25:0 26:0 27:0 28:0 29:1.2 30:0 31:0 32:0 33:1.6 34:0 35:0 36:0 37:0.1 38:0 39:0.2 40:0 41:0.4 42:0 43:0 44:0 45:1.3 46:0 47:0 48:0 49:0.9 50:0 51:0 52:0 53:0 54:0 55:0 56:0 
1 1:0.8 2:0 3:0 4:0 5:0.75 6:0 7:0 8:0 9:0.9 10:0 11:0 12:0 13:0.95 14:0 15:0 16:0 17:0.7 18:0 19:0 20:0 21:0.55 22:0 23:0 24:0 25:1.6 26:0 27:0 28:0 29:0.2 30:0 31:0 32:0 33:0.2 34:0 35:0 36:0 37:1.7 38:0 39:0 40:0 41:1.4 42:0 43:0 44:0 45:0.4 46:0 47:0 48:0 49:0 50:0 51:0 52:0 53:0.7 54:0 55:0 56:0 
0.9000837896648261 1:0.55 2:0 3:0.025 4:0 5:0.325 6:0 7:0 8:0 9:0.55 10:0 11:0.05 12:0 13:0.3 14:0 15:0 16:0 17:0.55 18:0 19:0 20:0 21:0.35 22:0 23:0 24:0 25:0.3 26:0 27:0.1 28:0 29:0.2 30:0 31:0 32:0 33:0.8 34:0 35:0 36:0 37:0.4 38:0 39:0 40:0 41:1.1 42:0 43:0 44:0 45:0.7 46:0 47:0 48:0 49:0 50:0 51:0 52:0 53:0 54:0 55:0 56:0 
0.7035664966938948 1:0.625 2:0 3:0 4:0 5:0.6 6:0 7:0 8:0 9:0.7 10:0 11:0 12:0 13:0.85 14:0 15:0 16:0 17:0.55 18:0 19:0 20:0 21:0.35 22:0 23:0 24:0 25:0.2 26:0 27:0 28:0 29:1.1 30:0 31:0 32:0 33:1.2 34:0 35:0 36:0 37:0.6 38:0 39:0 40:0 41:1.1 42:0 43:0 44:0 45:0.7 46:0 47:0 48:0 49:0 50:0 51:0 52:0 53:0 54:0 55:0 56:0 
1 1:0.55 2:0 3:0 4:0 5:0.672323 6:0 7:0 8:0 9:0.45 10:0 11:0 12:0 13:1.14465 14:0 15:0 16:0 17:0.65 18:0 19:0 20:0 21:0.2 22:0 23:0 24:0 25:0.1 26:0 27:0 28:0 29:1.30645 30:0 31:0 32:0 33:0.8 34:0 35:0 36:0 37:0.982843 38:0 39:0 40:0 41:1.2 42:0 43:0 44:0 45:0 46:0 47:0 48:0 49:0.1 50:0 51:0 52:0 53:0.4 54:0 55:0 56:0 
1 1:0.65 2:0 3:0 4:0 5:0.595711 6:0 7:0.05 8:0 9:0.55 10:0 11:0 12:0 13:0.691421 14:0 15:0.1 16:0 17:0.75 18:0 19:0 20:0 21:0.5 22:0 23:0 24:0 25:1.1 26:0 27:0 28:0 29:0.1 30:0 31:0 32:0 33:0 34:0 35:0 36:0 37:1.28284 38:0 39:0.2 40:0 41:1.2 42:0 43:0 44:0 45:0.6 46:0 47:0 48:0 49:0.3 50:0 51:0 52:0 53:0.4 54:0 55:0 56:0 
1 1:0.575 2:0 3:0.025 4:0 5:0.92716 6:0 7:0 8:0 9:0.55 10:0 11:0 12:0 13:0.886068 14:0 15:0 16:0 17:0.6 18:0 19:0.05 20:0 21:0.968253 22:0 23:0 24:0 25:0.5 26:0 27:0 28:0 29:0.282843 30:0 31:0 32:0 33:0.6 34:0 35:0 36:0 37:1.48929 38:0 39:0 40:0 41:1 42:0 43:0.1 44:0 45:0.730056 46:0 47:0 48:0 49:0.2 50:0 51:0 52:0 53:1.20645 54:0 55:0 56:0 
1 1:0.7 2:0 3:0 4:0 5:0.741257 6:0 7:0 8:0 9:0.9 10:0 11:0 12:0 13:0.661803 14:0 15:0 16:0 17:0.5 18:0 19:0 20:0 21:0.820711 22:0 23:0 24:0 25:0.6 26:0 27:0 28:0 29:1.02361 30:0 31:0 32:0 33:1.2 34:0 35:0 36:0 37:0.3 38:0 39:0 40:0 41:0.5 42:0 43:0 44:0 45:1.34142 46:0 47:0 48:0 49:0.5 50:0 51:0 52:0 53:0.3 54:0 55:0 56:0 
1 1:0.75 2:0 3:0 4:0 5:0.556066 6:0 7:0 8:0 9:0.8 10:0 11:0 12:0 13:0.912132 14:0 15:0 16:0 17:0.7 18:0 19:0 20:0 21:0.2 22:0 23:0 24:0 25:1 26:0 27:0 28:0 29:0.8 30:0 31:0 32:0 33:0.6 34:0 35:0 36:0 37:1.02426 38:0 39:0 40:0 41:1.2 42:0 43:0 44:0 45:0.4 46:0 47:0 48:0 49:0.2 50:0 51:0 52:0 53:0 54:0 55:0 56:0 
1 1:0.375 2:0 3:0.025 4:0 5:1.02522 6:0 7:0 8:0 9:0.25 10:0 11:0.05 12:0 13:1.18541 14:0 15:0 16:0 17:0.5 18:0 19:0 20:0 21:0.865028 22:0 23:0 24:0 25:0.1 26:0 27:0.1 28:0 29:1.3 30:0 31:0 32:0 33:0.4 34:0 35:0 36:0 37:1.07082 38:0 39:0 40:0 41:0.7 42:0 43:0 44:0 45:1.23006 46:0 47:0 48:0 49:0.3 50:0 51:0 52:0 53:0.5 54:0 55:0 56:0 
1 1:0.15 2:0 3:0 4:0 5:0.769646 6:0 7:0.05 8:0 9:0.1 10:0 11:0 12:0 13:1.43929 14:0 15:0.1 16:0 17:0.2 18:0 19:0 20:0 21:0.1 22:0 23:0 24:0 25:0 26:0 27:0 28:0 29:1.10645 30:0 31:0.1 32:0 33:0.2 34:0 35:0 36:0 37:1.77214 38:0 39:0.1 40:0 41:0.4 42:0 43:0 44:0 45:0.2 46:0 47:0 48:0 49:0 50:0 51:0 52:0 53:0 54:0 55:0 56:0 
1 1:0.1 2:0 3:0.025 4:0 5:0.657843 6:0 7:0 8:0 9:0.1 10:0 11:0.05 12:0 13:0.25 14:0 15:0 16:0 17:0.1 18:0 19:0 20:0 21:1.06569 22:0 23:0 24:0 25:0 26:0 27:0 28:0 29:0 30:0 31:0 32:0 33:0.2 34:0 35:0.1 36:0 37:0.5 38:0 39:0 40:0 41:0.2 42:0 43:0 44:0 45:1.93137 46:0 47:0 48:0 49:0 50:0 51:0 52:0 53:0.2 54:0 55:0 56:0 
1 1:0.15 2:0 3:0 4:0 5:0.963964 6:0 7:0.025 8:0 9:0 10:0 11:0 12:0 13:1.14186 14:0 15:0 16:0 17:0.3 18:0 19:0 20:0 21:0.786067 22:0 23:0.05 24:0 25:0 26:0 27:0 28:0 29:0 30:0 31:0 32:0 33:0 34:0 35:0 36:0 37:2.28372 38:0 39:0 40:0 41:0.4 42:0 43:0 44:0 45:1.47213 46:0 47:0.1 48:0 49:0.2 50:0 51:0 52:0 53:0.1 54:0 55:0 56:0 
1 1:0.25 2:0 3:0.025 4:0 5:0.775548 6:0 7:0 8:0 9:0.1 10:0 11:0 12:0 13:1.04787 14:0 15:0 16:0 17:0.4 18:0 19:0.05 20:0 21:0.503225 22:0 23:0 24:0 25:0 26:0 27:0 28:0 29:0 30:0 31:0 32:0 33:0.2 34:0 35:0 36:0 37:2.09574 38:0 39:0 40:0 41:0.7 42:0 43:0.1 44:0 45:1.00645 46:0 47:0 48:0 49:0.1 50:0 51:0 52:0 53:0 54:0 55:0 56:0 
1 1:0.35 2:0 3:0.025 4:0 5:0.411803 6:0 7:0 8:0 9:0.6 10:0 11:0.05 12:0 13:0.311803 14:0 15:0 16:0 17:0.1 18:0 19:0 20:0 21:0.511803 22:0 23:0 24:0 25:0 26:0 27:0 28:0 29:0.423607 30:0 31:0 32:0 33:1.2 34:0 35:0.1 36:0 37:0.2 38:0 39:0 40:0 41:0.2 42:0 43:0 44:0 45:1.02361 46:0 47:0 48:0 49:0 50:0 51:0 52:0 53:0 54:0 55:0 56:0 
1 1:0.425 2:0 3:0.05 4:0 5:0.411803 6:0 7:0.05 8:0 9:0 10:0 11:0 12:0 13:0.35 14:0 15:0 16:0 17:0.85 18:0 19:0.1 20:0 21:0.473607 22:0 23:0.1 24:0 25:0 26:0 27:0 28:0 29:0 30:0 31:0 32:0 33:0 34:0 35:0 36:0 37:0.7 38:0 39:0 40:0 41:0.6 42:0 43:0.2 44:0 45:0.847214 46:0 47:0.2 48:0 49:1.1 50:0 51:0 52:0 53:0.1 54:0 55:0 56:0 
0.2657003631491817 1:0.325 2:0 3:0.075 4:0 5:0.472323 6:0 7:0.05 8:0 9:0 10:0 11:0 12:0 13:0.553225 14:0 15:0 16:0 17:0.65 18:0 19:0.15 20:0 21:0.391421 22:0 23:0.1 24:0 25:0 26:0 27:0 28:0 29:0 30:0 31:0 32:0 33:0 34:0 35:0 36:0 37:1.10645 38:0 39:0 40:0 41:0.6 42:0 43:0.3 44:0 45:0.682843 46:0 47:0.2 48:0 49:0.7 50:0 51:0 52:0 53:0.1 54:0 55:0 56:0 
1 1:0.125 2:0 3:0.1 4:0 5:0.80645 6:0 7:0.05 8:0 9:0.1 10:0 11:0 12:0 13:0.765028 14:0 15:0 16:0 17:0.15 18:0 19:0.2 20:0 21:0.847871 22:0 23:0.1 24:0 25:0 26:0 27:0 28:0 29:0 30:0 31:0 32:0 33:0.2 34:0 35:0 36:0 37:1.53006 38:0 39:0 40:0 41:0 42:0 43:0.4 44:0 45:1.49574 46:0 47:0.2 48:0 49:0.3 50:0 51:0 52:0 53:0.2 54:0 55:0 56:0 
1 1:0.35 2:0 3:0.075 4:0 5:0.611803 6:0 7:0 8:0 9:0.2 10:0 11:0 12:0 13:0.45 14:0 15:0 16:0 17:0.5 18:0 19:0.15 20:0 21:0.773607 22:0 23:0 24:0 25:0 26:0 27:0 28:0 29:0 30:0 31:0 32:0 33:0.4 34:0 35:0 36:0 37:0.9 38:0 39:0 40:0 41:0.8 42:0 43:0.3 44:0 45:0.523607 46:0 47:0 48:0 49:0.2 50:0 51:0 52:0 53:1.02361 54:0 55:0 56:0 
1 1:0.475 2:0 3:0 4:0 5:0.6 6:0 7:0 8:0 9:0.7 10:0 11:0 12:0 13:0.8 14:0 15:0 16:0 17:0.25 18:0 19:0 20:0 21:0.4 22:0 23:0 24:0 25:0 26:0 27:0 28:0 29:1.3 30:0 31:0 32:0 33:1.4 34:0 35:0 36:0 37:0.3 38:0 39:0 40:0 41:0.5 42:0 43:0 44:0 45:0.8 46:0 47:0 48:0 49:0 50:0 51:0 52:0 53:0 54:0 55:0 56:0 
1 1:0.55 2:0 3:0 4:0 5:0.525 6:0 7:0 8:0 9:0.5 10:0 11:0 12:0 13:0.2 14:0 15:0 16:0 17:0.6 18:0 19:0 20:0 21:0.85 22:0 23:0 24:0 25:0 26:0 27:0 28:0 29:0 30:0 31:0 32:0 33:1 34:0 35:0 36:0 37:0.4 38:0 39:0 40:0 41:0.8 42:0 43:0 44:0 45:1 46:0 47:0 48:0 49:0.4 50:0 51:0 52:0 53:0.7 54:0 55:0 56:0 
0.05845409539661353 1:0.25 2:0 3:0 4:0 5:0.480902 6:0 7:0.025 8:0 9:0 10:0 11:0 12:0 13:0.45 14:0 15:0.05 16:0 17:0.5 18:0 19:0 20:0 21:0.511803 22:0 23:0 24:0 25:0 26:0 27:0 28:0 29:0 30:0 31:0 32:0 33:0 34:0 35:0 36:0 37:0.9 38:0 39:0.1 40:0 41:1 42:0 43:0 44:0 45:0.623607 46:0 47:0 48:0 49:0 50:0 51:0 52:0 53:0.4 54:0 55:0 56:0 
1 1:0.125 2:0 3:0 4:0 5:0.275 6:0 7:0 8:0 9:0.15 10:0 11:0 12:0 13:0.35 14:0 15:0 16:0 17:0.1 18:0 19:0 20:0 21:0.2 22:0 23:0 24:0 25:0 26:0 27:0 28:0 29:0 30:0 31:0 32:0 33:0.3 34:0 35:0 36:0 37:0.7 38:0 39:0 40:0 41:0.2 42:0 43:0 44:0 45:0.4 46:0 47:0 48:0 49:0 50:0 51:0 52:0 53:0 54:0 55:0 56:0 
1 1:0.25 2:0 3:0 4:0 5:0.944537 6:0 7:0.05 8:0 9:0.15 10:0 11:0 12:0 13:0.980056 14:0 15:0.1 16:0 17:0.35 18:0 19:0 20:0 21:0.909017 22:0 23:0 24:0 25:0.1 26:0 27:0 28:0 29:0.2 30:0 31:0 32:0 33:0.2 34:0 35:0 36:0 37:1.76011 38:0 39:0.2 40:0 41:0.2 42:0 43:0 44:0 45:1.81803 46:0 47:0 48:0 49:0.5 50:0 51:0 52:0 53:0 54:0 55:0 56:0 
1 1:0.275 2:0 3:0.125 4:0 5:0.468034 6:0 7:0.075 8:0 9:0.45 10:0 11:0.2 12:0 13:0.886068 14:0 15:0.15 16:0 17:0.1 18:0 19:0.05 20:0 21:0.05 22:0 23:0 24:0 25:0.6 26:0 27:0 28:0 29:0.582843 30:0 31:0.1 32:0 33:0.3 34:0 35:0.4 36:0 37:1.18929 38:0 39:0.2 40:0 41:0.2 42:0 43:0.1 44:0 45:0.1 46:0 47:0 48:0 49:0 50:0 51:0 52:0 53:0 54:0 55:0 56:0 
0.9466674201924545 1:0.25 2:0 3:0.05 4:0 5:0.700548 6:0 7:0 8:0 9:0.1 10:0 11:0.1 12:0 13:1.2011 14:0 15:0 16:0 17:0.4 18:0 19:0 20:0 21:0.2 22:0 23:0 24:0 25:0 26:0 27:0 28:0 29:0.623607 30:0 31:0 32:0 33:0.2 34:0 35:0.2 36:0 37:1.77858 38:0 39:0 40:0 41:0.8 42:0 43:0 44:0 45:0.4 46:0 47:0 48:0 49:0 50:0 51:0 52:0 53:0 54:0 55:0 56:0 
1 1:0.3 2:0 3:0.2 4:0 5:0.921258 6:0 7:0.025 8:0 9:0.2 10:0 11:0.3 12:0 13:0.965028 14:0 15:0 16:0 17:0.4 18:0 19:0.1 20:0 21:0.877489 22:0 23:0.05 24:0 25:0 26:0 27:0.4 28:0 29:0.9 30:0 31:0 32:0 33:0.4 34:0 35:0.2 36:0 37:1.03006 38:0 39:0 40:0 41:0 42:0 43:0.2 44:0 45:1.75498 46:0 47:0.1 48:0 49:0.8 50:0 51:0 52:0 53:0 54:0 55:0 56:0 
0.1255278349030294 1:0.175 2:0 3:0.15 4:0 5:0.744318 6:0 7:0 8:0 9:0 10:0 11:0 12:0 13:0.711803 14:0 15:0 16:0 17:0.35 18:0 19:0.3 20:0 21:0.776832 22:0 23:0 24:0 25:0 26:0 27:0 28:0 29:0 30:0 31:0 32:0 33:0 34:0 35:0 36:0 37:1.42361 38:0 39:0 40:0 41:0.6 42:0 43:0.4 44:0 45:0.930056 46:0 47:0 48:0 49:0.1 50:0 51:0.2 52:0 53:0.623607 54:0 55:0 56:0 
