svm_type c_svc
kernel_type rbf
gamma 0.0178571
nr_class 4
total_sv 173
rho 0.0207998 0.129793 0.0298033 0.258279 0.115334 -0.19982
label 1 2 3 4
nr_sv 28 50 45 50
SV
0 1 0 1:0.133333 2:0 3:0.183333 4:0 5:1.13869 6:0 7:0.183333 8:0 9:0.133333 10:0 11:0.2 12:0 13:1.51571 14:0 15:0.166667 16:0 17:0.133333 18:0 19:0.166667 20:0 21:0.761678 22:0 23:0.2 24:0 25:0.266667 26:0 27:0.133333 28:0 29:1.46857 30:0 31:0.133333 32:0 33:0 34:0 35:0.266667 36:0 37:1.56285 38:0 39:0.2 40:0 41:0.266667 42:0 43:0.133333 44:0 45:1.20146 46:0 47:0.4 48:0 49:0 50:0 51:0.2 52:0 53:0.321895 54:0 55:0 56:0 
0 1 0 1:0.166667 2:0 3:0.183333 4:0 5:1.22641 6:0 7:0.0833333 8:0 9:0 10:0 11:0.333333 12:0 13:1.62871 14:0 15:0.0666667 16:0 17:0.333333 18:0 19:0.0333333 20:0 21:0.824118 22:0 23:0.1 24:0 25:0 26:0 27:0.666667 28:0 29:1.31104 30:0 31:0 32:0 33:0 34:0 35:0 36:0 37:1.94638 38:0 39:0.133333 40:0 41:0.666667 42:0 43:0.0666667 44:0 45:0.933918 46:0 47:0.2 48:0 49:0 50:0 51:0 52:0 53:0.714318 54:0 55:0 56:0 
0 1 0 1:0.183333 2:0 3:0.15 4:0 5:1.12055 6:0 7:0.216667 8:0 9:0.133333 10:0 11:0.166667 12:0 13:1.23629 14:0 15:0.2 16:0 17:0.233333 18:0 19:0.133333 20:0 21:1.00481 22:0 23:0.233333 24:0 25:0.266667 26:0 27:0 28:0 29:0.596285 30:0 31:0.4 32:0 33:0 34:0 35:0.333333 36:0 37:1.87629 38:0 39:0 40:0 41:0.133333 42:0 43:0.0666667 44:0 45:1.37385 46:0 47:0.466667 48:0 49:0.333333 50:0 51:0.2 52:0 53:0.635775 54:0 55:0 56:0 
0 0.914195655532098 0 1:0.15 2:0 3:0.0833333 4:0 5:1.27578 6:0 7:0.1 8:0 9:0.133333 10:0 11:0 12:0 13:1.99818 14:0 15:0.0666667 16:0 17:0.166667 18:0 19:0.166667 20:0 21:0.553371 22:0 23:0.133333 24:0 25:0.266667 26:0 27:0 28:0 29:1.76715 30:0 31:0 32:0 33:0 34:0 35:0 36:0 37:2.22922 38:0 39:0.133333 40:0 41:0.266667 42:0 43:0.333333 44:0 45:0.784847 46:0 47:0.266667 48:0 49:0.0666667 50:0 51:0 52:0 53:0.321895 54:0 55:0 56:0 
1 1 0 1:0.15 2:0 3:0.0333333 4:0 5:0.837706 6:0 7:0.0833333 8:0 9:0.166667 10:0 11:0.0666667 12:0 13:1.06725 14:0 15:0.1 16:0 17:0.133333 18:0 19:0 20:0 21:0.608161 22:0 23:0.0666667 24:0 25:0.333333 26:0 27:0 28:0 29:0.298142 30:0 31:0 32:0 33:0 34:0 35:0.133333 36:0 37:1.83636 38:0 39:0.2 40:0 41:0.266667 42:0 43:0 44:0 45:1.21632 46:0 47:0.133333 48:0 49:0 50:0 51:0 52:0 53:0 54:0 55:0 56:0 
0 1 0 1:0.183333 2:0 3:0.0333333 4:0 5:1.17013 6:0 7:0.133333 8:0 9:0.133333 10:0 11:0.0666667 12:0 13:0.95024 14:0 15:0.166667 16:0 17:0.233333 18:0 19:0 20:0 21:1.39002 22:0 23:0.1 24:0 25:0 26:0 27:0 28:0 29:0.526195 30:0 31:0.266667 32:0 33:0.266667 34:0 35:0.133333 36:0 37:1.37428 38:0 39:0.0666667 40:0 41:0.4 42:0 43:0 44:0 45:1.84613 46:0 47:0.2 48:0 49:0.0666667 50:0 51:0 52:0 53:0.933918 54:0 55:0 56:0 
0 0.08580434446790199 0 1:0.0666667 2:0 3:0.133333 4:0 5:1.36026 6:0 7:0.183333 8:0 9:0.133333 10:0 11:0.266667 12:0 13:1.64525 14:0 15:0.0666667 16:0 17:0 18:0 19:0 20:0 21:1.07527 22:0 23:0.3 24:0 25:0 26:0 27:0.4 28:0 29:1.8062 30:0 31:0 32:0 33:0.266667 34:0 35:0.133333 36:0 37:1.4843 38:0 39:0.133333 40:0 41:0 42:0 43:0 44:0 45:1.20146 46:0 47:0.6 48:0 49:0 50:0 51:0 52:0 53:0.949071 54:0 55:0 56:0 
0 1 0 1:0.15 2:0 3:0.116667 4:0 5:1.13071 6:0 7:0.216667 8:0 9:0.166667 10:0 11:0.233333 12:0 13:1.31549 14:0 15:0.133333 16:0 17:0.133333 18:0 19:0 20:0 21:0.94594 22:0 23:0.3 24:0 25:0.2 26:0 27:0 28:0 29:0.863828 30:0 31:0.266667 32:0 33:0.133333 34:0 35:0.466667 36:0 37:1.76715 38:0 39:0 40:0 41:0.266667 42:0 43:0 44:0 45:1.09188 46:0 47:0.533333 48:0 49:0 50:0 51:0 52:0 53:0.8 54:0 55:0.0666667 56:0 
1 1 0 1:0.0666667 2:0 3:0.133333 4:0 5:0.885358 6:0 7:0.216667 8:0 9:0.133333 10:0 11:0.1 12:0 13:0.997599 14:0 15:0.0666667 16:0 17:0 18:0 19:0.166667 20:0 21:0.773116 22:0 23:0.366667 24:0 25:0.266667 26:0 27:0 28:0 29:0.149071 30:0 31:0 32:0 33:0 34:0 35:0.2 36:0 37:1.84613 38:0 39:0.133333 40:0 41:0 42:0 43:0.333333 44:0 45:1.14623 46:0 47:0.533333 48:0 49:0 50:0 51:0 52:0 53:0.4 54:0 55:0.2 56:0 
0 1 0 1:0.266667 2:0 3:0.0666667 4:0 5:1.09654 6:0 7:0.0666667 8:0 9:0.333333 10:0 11:0.0666667 12:0 13:1.50252 14:0 15:0.0666667 16:0 17:0.2 18:0 19:0.0666667 20:0 21:0.690566 22:0 23:0.0666667 24:0 25:0.666667 26:0 27:0.133333 28:0 29:0.839637 30:0 31:0.133333 32:0 33:0 34:0 35:0 36:0 37:2.16539 38:0 39:0 40:0 41:0.266667 42:0 43:0.133333 44:0 45:1.08299 46:0 47:0.133333 48:0 49:0.133333 50:0 51:0 52:0 53:0.298142 54:0 55:0 56:0 
0.5138003632909975 1 0 1:0.2 2:0 3:0.233333 4:0 5:1.12448 6:0 7:0.166667 8:0 9:0.333333 10:0 11:0.233333 12:0 13:1.53465 14:0 15:0.0333333 16:0 17:0.0666667 18:0 19:0.233333 20:0 21:0.714318 22:0 23:0.3 24:0 25:0.133333 26:0 27:0.333333 28:0 29:1.56969 30:0 31:0 32:0 33:0.533333 34:0 35:0.133333 36:0 37:1.4996 38:0 39:0.0666667 40:0 41:0 42:0 43:0.2 44:0 45:0.902442 46:0 47:0.6 48:0 49:0.133333 50:0 51:0.266667 52:0 53:0.526195 54:0 55:0 56:0 
1 1 1 1:0.166667 2:0 3:0 4:0 5:0.617924 6:0 7:0.0333333 8:0 9:0.233333 10:0 11:0 12:0 13:0.796504 14:0 15:0.0333333 16:0 17:0.1 18:0 19:0 20:0 21:0.439345 22:0 23:0.0333333 24:0 25:0.0666667 26:0 27:0 28:0 29:0 30:0 31:0 32:0 33:0.4 34:0 35:0 36:0 37:1.59301 38:0 39:0.0666667 40:0 41:0.2 42:0 43:0 44:0 45:0.878689 46:0 47:0.0666667 48:0 49:0 50:0 51:0 52:0 53:0 54:0 55:0 56:0 
1 1 0 1:0.0333333 2:0 3:0.0333333 4:0 5:0.769328 6:0 7:0.0166667 8:0 9:0 10:0 11:0.0666667 12:0 13:1.24838 14:0 15:0 16:0 17:0.0666667 18:0 19:0 20:0 21:0.290273 22:0 23:0.0333333 24:0 25:0 26:0 27:0 28:0 29:0.149071 30:0 31:0 32:0 33:0 34:0 35:0.133333 36:0 37:2.34769 38:0 39:0 40:0 41:0.133333 42:0 43:0 44:0 45:0.580547 46:0 47:0.0666667 48:0 49:0 50:0 51:0 52:0 53:0 54:0 55:0 56:0 
1 1 1 1:0.116667 2:0 3:0.05 4:0 5:0.546577 6:0 7:0.1 8:0 9:0.0666667 10:0 11:0.0333333 12:0 13:0.849802 14:0 15:0.0666667 16:0 17:0.166667 18:0 19:0.0666667 20:0 21:0.243352 22:0 23:0.133333 24:0 25:0 26:0 27:0 28:0 29:0 30:0 31:0 32:0 33:0.133333 34:0 35:0.0666667 36:0 37:1.6996 38:0 39:0.133333 40:0 41:0.333333 42:0 43:0.133333 44:0 45:0.486704 46:0 47:0.266667 48:0 49:0 50:0 51:0 52:0 53:0 54:0 55:0 56:0 
1 1 1 1:0.133333 2:0 3:0.0666667 4:0 5:0.657524 6:0 7:0 8:0 9:0.2 10:0 11:0.133333 12:0 13:1.31505 14:0 15:0 16:0 17:0.0666667 18:0 19:0 20:0 21:0 22:0 23:0 24:0 25:0 26:0 27:0 28:0 29:1.10674 30:0 31:0 32:0 33:0.4 34:0 35:0.266667 36:0 37:1.52336 38:0 39:0 40:0 41:0.133333 42:0 43:0 44:0 45:0 46:0 47:0 48:0 49:0 50:0 51:0 52:0 53:0 54:0 55:0 56:0 
1 1 1 1:0.116667 2:0 3:0.0166667 4:0 5:0.524682 6:0 7:0.05 8:0 9:0.133333 10:0 11:0 12:0 13:0.653152 14:0 15:0.1 16:0 17:0.1 18:0 19:0.0333333 20:0 21:0.396212 22:0 23:0 24:0 25:0 26:0 27:0 28:0 29:0 30:0 31:0 32:0 33:0.266667 34:0 35:0 36:0 37:1.3063 38:0 39:0.2 40:0 41:0.2 42:0 43:0.0666667 44:0 45:0.792423 46:0 47:0 48:0 49:0 50:0 51:0 52:0 53:0 54:0 55:0 56:0 
1 1 1 1:0.233333 2:0 3:0 4:0 5:0.639783 6:0 7:0.0166667 8:0 9:0.2 10:0 11:0 12:0 13:0.969547 14:0 15:0 16:0 17:0.266667 18:0 19:0 20:0 21:0.310019 22:0 23:0.0333333 24:0 25:0 26:0 27:0 28:0 29:0.266667 30:0 31:0 32:0 33:0.4 34:0 35:0 36:0 37:1.67243 38:0 39:0 40:0 41:0.533333 42:0 43:0 44:0 45:0.620037 46:0 47:0.0666667 48:0 49:0 50:0 51:0 52:0 53:0 54:0 55:0 56:0 
1 1 0 1:0.183333 2:0 3:0 4:0 5:0.85288 6:0 7:0.0333333 8:0 9:0.333333 10:0 11:0 12:0 13:1.07957 14:0 15:0.0666667 16:0 17:0.0333333 18:0 19:0 20:0 21:0.626195 22:0 23:0 24:0 25:0.4 26:0 27:0 28:0 29:0.337633 30:0 31:0 32:0 33:0.266667 34:0 35:0 36:0 37:1.8215 38:0 39:0.133333 40:0 41:0.0666667 42:0 43:0 44:0 45:1.25239 46:0 47:0 48:0 49:0 50:0 51:0 52:0 53:0 54:0 55:0 56:0 
1 1 1 1:0.05 2:0 3:0.0333333 4:0 5:0.555375 6:0 7:0.1 8:0 9:0.1 10:0 11:0.0666667 12:0 13:1.11075 14:0 15:0.2 16:0 17:0 18:0 19:0 20:0 21:0 22:0 23:0 24:0 25:0 26:0 27:0 28:0 29:1.22434 30:0 31:0.333333 32:0 33:0.2 34:0 35:0.133333 36:0 37:0.997161 38:0 39:0.0666667 40:0 41:0 42:0 43:0 44:0 45:0 46:0 47:0 48:0 49:0 50:0 51:0 52:0 53:0 54:0 55:0 56:0 
1 1 1 1:0.0666667 2:0 3:0.0333333 4:0 5:0.528835 6:0 7:0.05 8:0 9:0.133333 10:0 11:0.0666667 12:0 13:0.991004 14:0 15:0.1 16:0 17:0 18:0 19:0 20:0 21:0.0666667 22:0 23:0 24:0 25:0 26:0 27:0 28:0 29:0.592861 30:0 31:0.133333 32:0 33:0.266667 34:0 35:0.133333 36:0 37:1.38915 38:0 39:0.0666667 40:0 41:0 42:0 43:0 44:0 45:0.133333 46:0 47:0 48:0 49:0 50:0 51:0 52:0 53:0 54:0 55:0 56:0 
1 1 1 1:0.0833333 2:0 3:0.0333333 4:0 5:0.523116 6:0 7:0.05 8:0 9:0.133333 10:0 11:0.0666667 12:0 13:1.04623 14:0 15:0.1 16:0 17:0.0333333 18:0 19:0 20:0 21:0 22:0 23:0 24:0 25:0 26:0 27:0.133333 28:0 29:0.44379 30:0 31:0.2 32:0 33:0.266667 34:0 35:0 36:0 37:1.64867 38:0 39:0 40:0 41:0.0666667 42:0 43:0 44:0 45:0 46:0 47:0 48:0 49:0 50:0 51:0 52:0 53:0 54:0 55:0 56:0 
1 1 0 1:0.0333333 2:0 3:0.0166667 4:0 5:0.903627 6:0 7:0.15 8:0 9:0.0666667 10:0 11:0.0333333 12:0 13:1.28128 14:0 15:0.266667 16:0 17:0 18:0 19:0 20:0 21:0.525976 22:0 23:0.0333333 24:0 25:0 26:0 27:0 28:0 29:1.14193 30:0 31:0.2 32:0 33:0.133333 34:0 35:0.0666667 36:0 37:1.42062 38:0 39:0.333333 40:0 41:0 42:0 43:0 44:0 45:1.05195 46:0 47:0.0666667 48:0 49:0 50:0 51:0 52:0 53:0 54:0 55:0 56:0 
1 1 1 1:0.1 2:0 3:0.0166667 4:0 5:0.610165 6:0 7:0.05 8:0 9:0.0666667 10:0 11:0 12:0 13:0.984847 14:0 15:0.1 16:0 17:0.133333 18:0 19:0.0333333 20:0 21:0.235483 22:0 23:0 24:0 25:0 26:0 27:0 28:0 29:0.149071 30:0 31:0.0666667 32:0 33:0.133333 34:0 35:0 36:0 37:1.82062 38:0 39:0.133333 40:0 41:0.266667 42:0 43:0.0666667 44:0 45:0.470966 46:0 47:0 48:0 49:0 50:0 51:0 52:0 53:0 54:0 55:0 56:0 
1 1 1 1:0.133333 2:0 3:0.05 4:0 5:0.573972 6:0 7:0.05 8:0 9:0.133333 10:0 11:0.1 12:0 13:1.14794 14:0 15:0.1 16:0 17:0.133333 18:0 19:0 20:0 21:0 22:0 23:0 24:0 25:0.133333 26:0 27:0 28:0 29:0.647214 30:0 31:0.0666667 32:0 33:0.133333 34:0 35:0.2 36:0 37:1.64867 38:0 39:0.133333 40:0 41:0.266667 42:0 43:0 44:0 45:0 46:0 47:0 48:0 49:0 50:0 51:0 52:0 53:0 54:0 55:0 56:0 
1 1 0 1:0.05 2:0 3:0.0166667 4:0 5:0.745539 6:0 7:0.0333333 8:0 9:0 10:0 11:0.0333333 12:0 13:1.16153 14:0 15:0.0666667 16:0 17:0.1 18:0 19:0 20:0 21:0.329545 22:0 23:0 24:0 25:0 26:0 27:0 28:0 29:0.455228 30:0 31:0 32:0 33:0 34:0 35:0.0666667 36:0 37:1.86784 38:0 39:0.133333 40:0 41:0.2 42:0 43:0 44:0 45:0.65909 46:0 47:0 48:0 49:0 50:0 51:0 52:0 53:0 54:0 55:0 56:0 
1 1 1 1:0.0833333 2:0 3:0.0666667 4:0 5:0.537451 6:0 7:0 8:0 9:0.166667 10:0 11:0.0666667 12:0 13:0.812023 14:0 15:0 16:0 17:0 18:0 19:0.0666667 20:0 21:0.262878 22:0 23:0 24:0 25:0.0666667 26:0 27:0 28:0 29:0.133333 30:0 31:0 32:0 33:0.266667 34:0 35:0.133333 36:0 37:1.49071 38:0 39:0 40:0 41:0 42:0 43:0.133333 44:0 45:0.525757 46:0 47:0 48:0 49:0 50:0 51:0 52:0 53:0 54:0 55:0 56:0 
0 1 0 1:0.05 2:0 3:0.116667 4:0 5:1.01884 6:0 7:0.133333 8:0 9:0 10:0 11:0 12:0 13:1.40955 14:0 15:0.0666667 16:0 17:0.1 18:0 19:0.233333 20:0 21:0.628125 22:0 23:0.2 24:0 25:0 26:0 27:0 28:0 29:0.392423 30:0 31:0 32:0 33:0 34:0 35:0 36:0 37:2.42667 38:0 39:0.133333 40:0 41:0 42:0 43:0.466667 44:0 45:0.824337 46:0 47:0.4 48:0 49:0.2 50:0 51:0 52:0 53:0.431914 54:0 55:0 56:0 
1 1 1 1:0.0666667 2:0 3:0.1 4:0 5:0.839073 6:0 7:0.116667 8:0 9:0.0666667 10:0 11:0.0666667 12:0 13:1.07742 14:0 15:0.0666667 16:0 17:0.0666667 18:0 19:0.133333 20:0 21:0.60073 22:0 23:0.166667 24:0 25:0 26:0 27:0 28:0 29:0.926195 30:0 31:0.133333 32:0 33:0.133333 34:0 35:0.133333 36:0 37:1.22864 38:0 39:0 40:0 41:0.0666667 42:0 43:0.266667 44:0 45:1.20146 46:0 47:0.2 48:0 49:0.0666667 50:0 51:0 52:0 53:0 54:0 55:0.133333 56:0 
-0 0 1 1:0.0166667 2:0 3:0.1 4:0 5:0.0539345 6:0 7:0.133333 8:0 9:0.0333333 10:0 11:0.2 12:0 13:0.107869 14:0 15:0.266667 16:0 17:0 18:0 19:0 20:0 21:0 22:0 23:0 24:0 25:0 26:0 27:0.2 28:0 29:0.0666667 30:0 31:0 32:0 33:0.0666667 34:0 35:0.2 36:0 37:0.149071 38:0 39:0.533333 40:0 41:0 42:0 43:0 44:0 45:0 46:0 47:0 48:0 49:0 50:0 51:0 52:0 53:0 54:0 55:0 56:0 
-0 0 1 1:0 2:0 3:0.1 4:0 5:0 6:0 7:0.116667 8:0 9:0 10:0 11:0.2 12:0 13:0 14:0 15:0.233333 16:0 17:0 18:0 19:0 20:0 21:0 22:0 23:0 24:0 25:0 26:0 27:0.4 28:0 29:0 30:0 31:0.333333 32:0 33:0 34:0 35:0 36:0 37:0 38:0 39:0.133333 40:0 41:0 42:0 43:0 44:0 45:0 46:0 47:0 48:0 49:0 50:0 51:0 52:0 53:0 54:0 55:0 56:0 
-0 1 1 1:0 2:0 3:0.15 4:0 5:0.0372678 6:0 7:0.266667 8:0 9:0 10:0 11:0.3 12:0 13:0.0745356 14:0 15:0 16:0 17:0 18:0 19:0 20:0 21:0 22:0 23:0.533333 24:0 25:0 26:0 27:0 28:0 29:0 30:0 31:0 32:0 33:0 34:0 35:0.6 36:0 37:0.149071 38:0 39:0 40:0 41:0 42:0 43:0 44:0 45:0 46:0 47:1.06667 48:0 49:0 50:0 51:0 52:0 53:0 54:0 55:0 56:0 
-1 1 1 1:0.0333333 2:0 3:0.133333 4:0 5:0.192387 6:0 7:0.15 8:0 9:0.0666667 10:0 11:0.266667 12:0 13:0.196212 14:0 15:0.0666667 16:0 17:0 18:0 19:0 20:0 21:0.188562 22:0 23:0.233333 24:0 25:0 26:0 27:0 28:0 29:0 30:0 31:0 32:0 33:0.133333 34:0 35:0.533333 36:0 37:0.392423 38:0 39:0.133333 40:0 41:0 42:0 43:0 44:0 45:0.377124 46:0 47:0.466667 48:0 49:0 50:0 51:0 52:0 53:0 54:0 55:0 56:0 
-1 1 1 1:0 2:0 3:0.1 4:0 5:0.300256 6:0 7:0.0833333 8:0 9:0 10:0 11:0.2 12:0 13:0.600511 14:0 15:0.166667 16:0 17:0 18:0 19:0 20:0 21:0 22:0 23:0 24:0 25:0 26:0 27:0.333333 28:0 29:0.447214 30:0 31:0 32:0 33:0 34:0 35:0.0666667 36:0 37:0.753809 38:0 39:0.333333 40:0 41:0 42:0 43:0 44:0 45:0 46:0 47:0 48:0 49:0 50:0 51:0 52:0 53:0 54:0 55:0 56:0 
-0 1 1 1:0 2:0 3:0.0833333 4:0 5:0.20215 6:0 7:0.116667 8:0 9:0 10:0 11:0.166667 12:0 13:0.4043 14:0 15:0.233333 16:0 17:0 18:0 19:0 20:0 21:0 22:0 23:0 24:0 25:0 26:0 27:0.333333 28:0 29:0.364809 30:0 31:0 32:0 33:0 34:0 35:0 36:0 37:0.44379 38:0 39:0.466667 40:0 41:0 42:0 43:0 44:0 45:0 46:0 47:0 48:0 49:0 50:0 51:0 52:0 53:0 54:0 55:0 56:0 
-0 0 1 1:0 2:0 3:0.133333 4:0 5:0.0745356 6:0 7:0.166667 8:0 9:0 10:0 11:0.266667 12:0 13:0.149071 14:0 15:0.333333 16:0 17:0 18:0 19:0 20:0 21:0 22:0 23:0 24:0 25:0 26:0 27:0.333333 28:0 29:0.149071 30:0 31:0 32:0 33:0 34:0 35:0.2 36:0 37:0.149071 38:0 39:0.666667 40:0 41:0 42:0 43:0 44:0 45:0 46:0 47:0 48:0 49:0 50:0 51:0 52:0 53:0 54:0 55:0 56:0 
-1 1 1 1:0 2:0 3:0.1 4:0 5:0.235483 6:0 7:0.133333 8:0 9:0 10:0 11:0.2 12:0 13:0.470966 14:0 15:0.266667 16:0 17:0 18:0 19:0 20:0 21:0 22:0 23:0 24:0 25:0 26:0 27:0.2 28:0 29:0.4043 30:0 31:0 32:0 33:0 34:0 35:0.2 36:0 37:0.537633 38:0 39:0.533333 40:0 41:0 42:0 43:0 44:0 45:0 46:0 47:0 48:0 49:0 50:0 51:0 52:0 53:0 54:0 55:0 56:0 
-1 1 1 1:0.0666667 2:0 3:0.116667 4:0 5:0.195356 6:0 7:0.116667 8:0 9:0.133333 10:0 11:0.233333 12:0 13:0.390712 14:0 15:0.233333 16:0 17:0 18:0 19:0 20:0 21:0 22:0 23:0 24:0 25:0.133333 26:0 27:0.4 28:0 29:0.188562 30:0 31:0 32:0 33:0.133333 34:0 35:0.0666667 36:0 37:0.592861 38:0 39:0.466667 40:0 41:0 42:0 43:0 44:0 45:0 46:0 47:0 48:0 49:0 50:0 51:0 52:0 53:0 54:0 55:0 56:0 
-0 0 1 1:0 2:0 3:0.15 4:0 5:0 6:0 7:0.216667 8:0 9:0 10:0 11:0.3 12:0 13:0 14:0 15:0.166667 16:0 17:0 18:0 19:0 20:0 21:0 22:0 23:0.266667 24:0 25:0 26:0 27:0 28:0 29:0 30:0 31:0 32:0 33:0 34:0 35:0.6 36:0 37:0 38:0 39:0.333333 40:0 41:0 42:0 43:0 44:0 45:0 46:0 47:0.533333 48:0 49:0 50:0 51:0 52:0 53:0 54:0 55:0 56:0 
-0 0 1 1:0 2:0 3:0.0666667 4:0 5:0.0745356 6:0 7:0.183333 8:0 9:0 10:0 11:0.133333 12:0 13:0.149071 14:0 15:0.366667 16:0 17:0 18:0 19:0 20:0 21:0 22:0 23:0 24:0 25:0 26:0 27:0.266667 28:0 29:0.298142 30:0 31:0.0666667 32:0 33:0 34:0 35:0 36:0 37:0 38:0 39:0.666667 40:0 41:0 42:0 43:0 44:0 45:0 46:0 47:0 48:0 49:0 50:0 51:0 52:0 53:0 54:0 55:0 56:0 
-1 1 1 1:0 2:0 3:0.05 4:0 5:0.253225 6:0 7:0.0166667 8:0 9:0 10:0 11:0.1 12:0 13:0.506449 14:0 15:0.0333333 16:0 17:0 18:0 19:0 20:0 21:0 22:0 23:0 24:0 25:0 26:0 27:0.133333 28:0 29:0.392423 30:0 31:0 32:0 33:0 34:0 35:0.0666667 36:0 37:0.620476 38:0 39:0.0666667 40:0 41:0 42:0 43:0 44:0 45:0 46:0 47:0 48:0 49:0 50:0 51:0 52:0 53:0 54:0 55:0 56:0 
-1 1 1 1:0.0333333 2:0 3:0.0833333 4:0 5:0.247177 6:0 7:0.0833333 8:0 9:0.0666667 10:0 11:0.166667 12:0 13:0.494354 14:0 15:0.166667 16:0 17:0 18:0 19:0 20:0 21:0 22:0 23:0 24:0 25:0.133333 26:0 27:0.333333 28:0 29:0.541494 30:0 31:0 32:0 33:0 34:0 35:0 36:0 37:0.447214 38:0 39:0.333333 40:0 41:0 42:0 43:0 44:0 45:0 46:0 47:0 48:0 49:0 50:0 51:0 52:0 53:0 54:0 55:0 56:0 
-0 1 1 1:0 2:0 3:0.05 4:0 5:0.060838 6:0 7:0.0833333 8:0 9:0 10:0 11:0.1 12:0 13:0.121676 14:0 15:0.166667 16:0 17:0 18:0 19:0 20:0 21:0 22:0 23:0 24:0 25:0 26:0 27:0.0666667 28:0 29:0 30:0 31:0 32:0 33:0 34:0 35:0.133333 36:0 37:0.243352 38:0 39:0.333333 40:0 41:0 42:0 43:0 44:0 45:0 46:0 47:0 48:0 49:0 50:0 51:0 52:0 53:0 54:0 55:0 56:0 
-0 1 1 1:0 2:0 3:0.05 4:0 5:0.121676 6:0 7:0.0833333 8:0 9:0 10:0 11:0.1 12:0 13:0.243352 14:0 15:0.166667 16:0 17:0 18:0 19:0 20:0 21:0 22:0 23:0 24:0 25:0 26:0 27:0.2 28:0 29:0.392423 30:0 31:0.333333 32:0 33:0 34:0 35:0 36:0 37:0.0942809 38:0 39:0 40:0 41:0 42:0 43:0 44:0 45:0 46:0 47:0 48:0 49:0 50:0 51:0 52:0 53:0 54:0 55:0 56:0 
-0 1 1 1:0 2:0 3:0 4:0 5:0.168817 6:0 7:0.133333 8:0 9:0 10:0 11:0 12:0 13:0.337633 14:0 15:0.266667 16:0 17:0 18:0 19:0 20:0 21:0 22:0 23:0 24:0 25:0 26:0 27:0 28:0 29:0.675266 30:0 31:0.0666667 32:0 33:0 34:0 35:0 36:0 37:0 38:0 39:0.466667 40:0 41:0 42:0 43:0 44:0 45:0 46:0 47:0 48:0 49:0 50:0 51:0 52:0 53:0 54:0 55:0 56:0 
-0 0 1 1:0 2:0 3:0.133333 4:0 5:0 6:0 7:0.166667 8:0 9:0 10:0 11:0.266667 12:0 13:0 14:0 15:0.333333 16:0 17:0 18:0 19:0 20:0 21:0 22:0 23:0 24:0 25:0 26:0 27:0.0666667 28:0 29:0 30:0 31:0 32:0 33:0 34:0 35:0.466667 36:0 37:0 38:0 39:0.666667 40:0 41:0 42:0 43:0 44:0 45:0 46:0 47:0 48:0 49:0 50:0 51:0 52:0 53:0 54:0 55:0 56:0 
-0 0 1 1:0 2:0 3:0.133333 4:0 5:0.0372678 6:0 7:0.166667 8:0 9:0 10:0 11:0.266667 12:0 13:0.0745356 14:0 15:0.333333 16:0 17:0 18:0 19:0 20:0 21:0 22:0 23:0 24:0 25:0 26:0 27:0.533333 28:0 29:0 30:0 31:0 32:0 33:0 34:0 35:0 36:0 37:0.149071 38:0 39:0.666667 40:0 41:0 42:0 43:0 44:0 45:0 46:0 47:0 48:0 49:0 50:0 51:0 52:0 53:0 54:0 55:0 56:0 
-1 1 1 1:0 2:0 3:0.116667 4:0 5:0.235702 6:0 7:0.05 8:0 9:0 10:0 11:0.0333333 12:0 13:0 14:0 15:0 16:0 17:0 18:0 19:0.2 20:0 21:0.471405 22:0 23:0.1 24:0 25:0 26:0 27:0.0666667 28:0 29:0 30:0 31:0 32:0 33:0 34:0 35:0 36:0 37:0 38:0 39:0 40:0 41:0 42:0 43:0.4 44:0 45:0.942809 46:0 47:0.2 48:0 49:0 50:0 51:0 52:0 53:0 54:0 55:0 56:0 
-1 1 1 1:0.0333333 2:0 3:0.0666667 4:0 5:0.259272 6:0 7:0.05 8:0 9:0.0666667 10:0 11:0.133333 12:0 13:0.518545 14:0 15:0.1 16:0 17:0 18:0 19:0 20:0 21:0 22:0 23:0 24:0 25:0 26:0 27:0.266667 28:0 29:0.471405 30:0 31:0 32:0 33:0.133333 34:0 35:0 36:0 37:0.565685 38:0 39:0.2 40:0 41:0 42:0 43:0 44:0 45:0 46:0 47:0 48:0 49:0 50:0 51:0 52:0 53:0 54:0 55:0 56:0 
-1 1 1 1:0.0166667 2:0 3:0.05 4:0 5:0.343571 6:0 7:0.2 8:0 9:0.0333333 10:0 11:0.1 12:0 13:0.687142 14:0 15:0.4 16:0 17:0 18:0 19:0 20:0 21:0 22:0 23:0 24:0 25:0 26:0 27:0.2 28:0 29:0.675266 30:0 31:0 32:0 33:0.0666667 34:0 35:0 36:0 37:0.699019 38:0 39:0.8 40:0 41:0 42:0 43:0 44:0 45:0 46:0 47:0 48:0 49:0 50:0 51:0 52:0 53:0 54:0 55:0 56:0 
-0 1 1 1:0 2:0 3:0.0333333 4:0 5:0.0745356 6:0 7:0.0666667 8:0 9:0 10:0 11:0.0666667 12:0 13:0.149071 14:0 15:0.133333 16:0 17:0 18:0 19:0 20:0 21:0 22:0 23:0 24:0 25:0 26:0 27:0 28:0 29:0 30:0 31:0 32:0 33:0 34:0 35:0.133333 36:0 37:0.298142 38:0 39:0.266667 40:0 41:0 42:0 43:0 44:0 45:0 46:0 47:0 48:0 49:0 50:0 51:0 52:0 53:0 54:0 55:0 56:0 
-0 0 1 1:0 2:0 3:0.0833333 4:0 5:0 6:0 7:0.0833333 8:0 9:0 10:0 11:0.166667 12:0 13:0 14:0 15:0.166667 16:0 17:0 18:0 19:0 20:0 21:0 22:0 23:0 24:0 25:0 26:0 27:0.0666667 28:0 29:0 30:0 31:0 32:0 33:0 34:0 35:0.266667 36:0 37:0 38:0 39:0.333333 40:0 41:0 42:0 43:0 44:0 45:0 46:0 47:0 48:0 49:0 50:0 51:0 52:0 53:0 54:0 55:0 56:0 
-0 0 1 1:0 2:0 3:0.1 4:0 5:0 6:0 7:0.0833333 8:0 9:0 10:0 11:0.2 12:0 13:0 14:0 15:0.166667 16:0 17:0 18:0 19:0 20:0 21:0 22:0 23:0 24:0 25:0 26:0 27:0 28:0 29:0 30:0 31:0 32:0 33:0 34:0 35:0.4 36:0 37:0 38:0 39:0.333333 40:0 41:0 42:0 43:0 44:0 45:0 46:0 47:0 48:0 49:0 50:0 51:0 52:0 53:0 54:0 55:0 56:0 
-0 1 1 1:0 2:0 3:0.05 4:0 5:0.0707107 6:0 7:0.0166667 8:0 9:0 10:0 11:0.1 12:0 13:0.0471405 14:0 15:0 16:0 17:0 18:0 19:0 20:0 21:0.0942809 22:0 23:0.0333333 24:0 25:0 26:0 27:0 28:0 29:0 30:0 31:0 32:0 33:0 34:0 35:0.2 36:0 37:0.0942809 38:0 39:0 40:0 41:0 42:0 43:0 44:0 45:0.188562 46:0 47:0.0666667 48:0 49:0 50:0 51:0 52:0 53:0 54:0 55:0 56:0 
-1 1 1 1:0.05 2:0 3:0.1 4:0 5:0.455265 6:0 7:0.05 8:0 9:0.1 10:0 11:0.2 12:0 13:0.91053 14:0 15:0.1 16:0 17:0 18:0 19:0 20:0 21:0 22:0 23:0 24:0 25:0.133333 26:0 27:0.266667 28:0 29:0.592423 30:0 31:0.0666667 32:0 33:0.0666667 34:0 35:0.133333 36:0 37:1.22864 38:0 39:0.133333 40:0 41:0 42:0 43:0 44:0 45:0 46:0 47:0 48:0 49:0 50:0 51:0 52:0 53:0 54:0 55:0 56:0 
-0 0 1 1:0 2:0 3:0.15 4:0 5:0.0942809 6:0 7:0.183333 8:0 9:0 10:0 11:0.3 12:0 13:0.188562 14:0 15:0.366667 16:0 17:0 18:0 19:0 20:0 21:0 22:0 23:0 24:0 25:0 26:0 27:0.6 28:0 29:0.377124 30:0 31:0.266667 32:0 33:0 34:0 35:0 36:0 37:0 38:0 39:0.466667 40:0 41:0 42:0 43:0 44:0 45:0 46:0 47:0 48:0 49:0 50:0 51:0 52:0 53:0 54:0 55:0 56:0 
-0 0 1 1:0 2:0 3:0.183333 4:0 5:0.0706011 6:0 7:0.15 8:0 9:0 10:0 11:0.333333 12:0 13:0.141202 14:0 15:0.3 16:0 17:0 18:0 19:0.0333333 20:0 21:0 22:0 23:0 24:0 25:0 26:0 27:0 28:0 29:0 30:0 31:0.0666667 32:0 33:0 34:0 35:0.666667 36:0 37:0.282405 38:0 39:0.533333 40:0 41:0 42:0 43:0.0666667 44:0 45:0 46:0 47:0 48:0 49:0 50:0 51:0 52:0 53:0 54:0 55:0 56:0 
-0.5138003632909975 1 1 1:0 2:0 3:0.0666667 4:0 5:0.175611 6:0 7:0.0833333 8:0 9:0 10:0 11:0.133333 12:0 13:0.351221 14:0 15:0.166667 16:0 17:0 18:0 19:0 20:0 21:0 22:0 23:0 24:0 25:0 26:0 27:0.2 28:0 29:0.298142 30:0 31:0.133333 32:0 33:0 34:0 35:0.0666667 36:0 37:0.4043 38:0 39:0.2 40:0 41:0 42:0 43:0 44:0 45:0 46:0 47:0 48:0 49:0 50:0 51:0 52:0 53:0 54:0 55:0 56:0 
-1 1 1 1:0.0333333 2:0 3:0.0833333 4:0 5:0.235702 6:0 7:0.0666667 8:0 9:0.0666667 10:0 11:0.166667 12:0 13:0.471405 14:0 15:0.133333 16:0 17:0 18:0 19:0 20:0 21:0 22:0 23:0 24:0 25:0 26:0 27:0.333333 28:0 29:0.565685 30:0 31:0 32:0 33:0.133333 34:0 35:0 36:0 37:0.377124 38:0 39:0.266667 40:0 41:0 42:0 43:0 44:0 45:0 46:0 47:0 48:0 49:0 50:0 51:0 52:0 53:0 54:0 55:0 56:0 
-0 0.5585908325696499 1 1:0 2:0 3:0.15 4:0 5:0.0942809 6:0 7:0.116667 8:0 9:0 10:0 11:0.3 12:0 13:0.188562 14:0 15:0.233333 16:0 17:0 18:0 19:0 20:0 21:0 22:0 23:0 24:0 25:0 26:0 27:0.6 28:0 29:0.377124 30:0 31:0.333333 32:0 33:0 34:0 35:0 36:0 37:0 38:0 39:0.133333 40:0 41:0 42:0 43:0 44:0 45:0 46:0 47:0 48:0 49:0 50:0 51:0 52:0 53:0 54:0 55:0 56:0 
-0 1 1 1:0 2:0 3:0.116667 4:0 5:0.111803 6:0 7:0.1 8:0 9:0 10:0 11:0.233333 12:0 13:0.223607 14:0 15:0.2 16:0 17:0 18:0 19:0 20:0 21:0 22:0 23:0 24:0 25:0 26:0 27:0.333333 28:0 29:0 30:0 31:0.133333 32:0 33:0 34:0 35:0.133333 36:0 37:0.447214 38:0 39:0.266667 40:0 41:0 42:0 43:0 44:0 45:0 46:0 47:0 48:0 49:0 50:0 51:0 52:0 53:0 54:0 55:0 56:0 
-1 1 1 1:0.0166667 2:0 3:0 4:0 5:0.233479 6:0 7:0.116667 8:0 9:0.0333333 10:0 11:0 12:0 13:0.466959 14:0 15:0.233333 16:0 17:0 18:0 19:0 20:0 21:0 22:0 23:0 24:0 25:0 26:0 27:0 28:0 29:0 30:0 31:0 32:0 33:0.0666667 34:0 35:0 36:0 37:0.933918 38:0 39:0.466667 40:0 41:0 42:0 43:0 44:0 45:0 46:0 47:0 48:0 49:0 50:0 51:0 52:0 53:0 54:0 55:0 56:0 
-1 1 1 1:0 2:0 3:0.0333333 4:0 5:0.279764 6:0 7:0.133333 8:0 9:0 10:0 11:0.0666667 12:0 13:0.559528 14:0 15:0.266667 16:0 17:0 18:0 19:0 20:0 21:0 22:0 23:0 24:0 25:0 26:0 27:0.0666667 28:0 29:0 30:0 31:0 32:0 33:0 34:0 35:0.0666667 36:0 37:1.11906 38:0 39:0.533333 40:0 41:0 42:0 43:0 44:0 45:0 46:0 47:0 48:0 49:0 50:0 51:0 52:0 53:0 54:0 55:0 56:0 
-1 1 1 1:0.0333333 2:0 3:0.0166667 4:0 5:0.32011 6:0 7:0.15 8:0 9:0.0666667 10:0 11:0.0333333 12:0 13:0.640221 14:0 15:0.3 16:0 17:0 18:0 19:0 20:0 21:0 22:0 23:0 24:0 25:0 26:0 27:0.0666667 28:0 29:0.903318 30:0 31:0 32:0 33:0.133333 34:0 35:0 36:0 37:0.377124 38:0 39:0.6 40:0 41:0 42:0 43:0 44:0 45:0 46:0 47:0 48:0 49:0 50:0 51:0 52:0 53:0 54:0 55:0 56:0 
-0 1 1 1:0 2:0 3:0.0333333 4:0 5:0.172641 6:0 7:0.15 8:0 9:0 10:0 11:0.0666667 12:0 13:0.345283 14:0 15:0.3 16:0 17:0 18:0 19:0 20:0 21:0 22:0 23:0 24:0 25:0 26:0 27:0.133333 28:0 29:0.447214 30:0 31:0 32:0 33:0 34:0 35:0 36:0 37:0.243352 38:0 39:0.6 40:0 41:0 42:0 43:0 44:0 45:0 46:0 47:0 48:0 49:0 50:0 51:0 52:0 53:0 54:0 55:0 56:0 
-1 1 1 1:0 2:0 3:0.0333333 4:0 5:0.361203 6:0 7:0.0333333 8:0 9:0 10:0 11:0.0666667 12:0 13:0.647871 14:0 15:0.0666667 16:0 17:0 18:0 19:0 20:0 21:0.0745356 22:0 23:0 24:0 25:0 26:0 27:0 28:0 29:0 30:0 31:0 32:0 33:0 34:0 35:0.133333 36:0 37:1.29574 38:0 39:0.133333 40:0 41:0 42:0 43:0 44:0 45:0.149071 46:0 47:0 48:0 49:0 50:0 51:0 52:0 53:0 54:0 55:0 56:0 
-1 1 1 1:0 2:0 3:0.166667 4:0 5:0.168817 6:0 7:0.0666667 8:0 9:0 10:0 11:0.266667 12:0 13:0.168817 14:0 15:0.0333333 16:0 17:0 18:0 19:0.0666667 20:0 21:0.168817 22:0 23:0.1 24:0 25:0 26:0 27:0 28:0 29:0 30:0 31:0 32:0 33:0 34:0 35:0.533333 36:0 37:0.337633 38:0 39:0.0666667 40:0 41:0 42:0 43:0.133333 44:0 45:0.337633 46:0 47:0.2 48:0 49:0 50:0 51:0 52:0 53:0 54:0 55:0 56:0 
-1 1 1 1:0 2:0 3:0.0666667 4:0 5:0.202259 6:0 7:0.133333 8:0 9:0 10:0 11:0.133333 12:0 13:0.404519 14:0 15:0.166667 16:0 17:0 18:0 19:0 20:0 21:0 22:0 23:0.1 24:0 25:0 26:0 27:0 28:0 29:0 30:0 31:0 32:0 33:0 34:0 35:0.266667 36:0 37:0.809038 38:0 39:0.333333 40:0 41:0 42:0 43:0 44:0 45:0 46:0 47:0.2 48:0 49:0 50:0 51:0 52:0 53:0 54:0 55:0 56:0 
-0 1 1 1:0 2:0 3:0.0666667 4:0 5:0.0745356 6:0 7:0.116667 8:0 9:0 10:0 11:0.133333 12:0 13:0.149071 14:0 15:0.233333 16:0 17:0 18:0 19:0 20:0 21:0 22:0 23:0 24:0 25:0 26:0 27:0.266667 28:0 29:0.298142 30:0 31:0.2 32:0 33:0 34:0 35:0 36:0 37:0 38:0 39:0.266667 40:0 41:0 42:0 43:0 44:0 45:0 46:0 47:0 48:0 49:0 50:0 51:0 52:0 53:0 54:0 55:0 56:0 
-0 1 1 1:0.0333333 2:0 3:0.1 4:0 5:0.0471405 6:0 7:0.1 8:0 9:0.0666667 10:0 11:0.2 12:0 13:0.0942809 14:0 15:0.2 16:0 17:0 18:0 19:0 20:0 21:0 22:0 23:0 24:0 25:0 26:0 27:0.4 28:0 29:0 30:0 31:0.0666667 32:0 33:0.133333 34:0 35:0 36:0 37:0.188562 38:0 39:0.333333 40:0 41:0 42:0 43:0 44:0 45:0 46:0 47:0 48:0 49:0 50:0 51:0 52:0 53:0 54:0 55:0 56:0 
-0 1 1 1:0 2:0 3:0.1 4:0 5:0.0981058 6:0 7:0.0666667 8:0 9:0 10:0 11:0.2 12:0 13:0.196212 14:0 15:0.133333 16:0 17:0 18:0 19:0 20:0 21:0 22:0 23:0 24:0 25:0 26:0 27:0.4 28:0 29:0 30:0 31:0 32:0 33:0 34:0 35:0 36:0 37:0.392423 38:0 39:0.266667 40:0 41:0 42:0 43:0 44:0 45:0 46:0 47:0 48:0 49:0 50:0 51:0 52:0 53:0 54:0 55:0 56:0 
-0 0 1 1:0 2:0 3:0.116667 4:0 5:0.0707107 6:0 7:0.166667 8:0 9:0 10:0 11:0.233333 12:0 13:0.141421 14:0 15:0.333333 16:0 17:0 18:0 19:0 20:0 21:0 22:0 23:0 24:0 25:0 26:0 27:0.266667 28:0 29:0.188562 30:0 31:0 32:0 33:0 34:0 35:0.2 36:0 37:0.0942809 38:0 39:0.666667 40:0 41:0 42:0 43:0 44:0 45:0 46:0 47:0 48:0 49:0 50:0 51:0 52:0 53:0 54:0 55:0 56:0 
-0 0 1 1:0 2:0 3:0.116667 4:0 5:0 6:0 7:0.166667 8:0 9:0 10:0 11:0.233333 12:0 13:0 14:0 15:0.333333 16:0 17:0 18:0 19:0 20:0 21:0 22:0 23:0 24:0 25:0 26:0 27:0.466667 28:0 29:0 30:0 31:0 32:0 33:0 34:0 35:0 36:0 37:0 38:0 39:0.666667 40:0 41:0 42:0 43:0 44:0 45:0 46:0 47:0 48:0 49:0 50:0 51:0 52:0 53:0 54:0 55:0 56:0 
-0 1 1 1:0 2:0 3:0.0833333 4:0 5:0.155119 6:0 7:0.1 8:0 9:0 10:0 11:0.166667 12:0 13:0.310238 14:0 15:0.2 16:0 17:0 18:0 19:0 20:0 21:0 22:0 23:0 24:0 25:0 26:0 27:0.333333 28:0 29:0.282843 30:0 31:0 32:0 33:0 34:0 35:0 36:0 37:0.337633 38:0 39:0.4 40:0 41:0 42:0 43:0 44:0 45:0 46:0 47:0 48:0 49:0 50:0 51:0 52:0 53:0 54:0 55:0 56:0 
-0 1 1 1:0 2:0 3:0.133333 4:0 5:0.134518 6:0 7:0.0666667 8:0 9:0 10:0 11:0.266667 12:0 13:0.269036 14:0 15:0.133333 16:0 17:0 18:0 19:0 20:0 21:0 22:0 23:0 24:0 25:0 26:0 27:0.4 28:0 29:0 30:0 31:0 32:0 33:0 34:0 35:0.133333 36:0 37:0.538071 38:0 39:0.266667 40:0 41:0 42:0 43:0 44:0 45:0 46:0 47:0 48:0 49:0 50:0 51:0 52:0 53:0 54:0 55:0 56:0 
-0 0 1 1:0.0166667 2:0 3:0.15 4:0 5:0 6:0 7:0.15 8:0 9:0.0333333 10:0 11:0.3 12:0 13:0 14:0 15:0.3 16:0 17:0 18:0 19:0 20:0 21:0 22:0 23:0 24:0 25:0 26:0 27:0.2 28:0 29:0 30:0 31:0 32:0 33:0.0666667 34:0 35:0.4 36:0 37:0 38:0 39:0.6 40:0 41:0 42:0 43:0 44:0 45:0 46:0 47:0 48:0 49:0 50:0 51:0 52:0 53:0 54:0 55:0 56:0 
-1 1 1 1:0 2:0 3:0.05 4:0 5:0.219782 6:0 7:0.1 8:0 9:0 10:0 11:0.1 12:0 13:0.439564 14:0 15:0.166667 16:0 17:0 18:0 19:0 20:0 21:0 22:0 23:0.0333333 24:0 25:0 26:0 27:0.0666667 28:0 29:0 30:0 31:0 32:0 33:0 34:0 35:0.133333 36:0 37:0.879127 38:0 39:0.333333 40:0 41:0 42:0 43:0 44:0 45:0 46:0 47:0.0666667 48:0 49:0 50:0 51:0 52:0 53:0 54:0 55:0 56:0 
-0 1 1 1:0 2:0 3:0.1 4:0 5:0.135374 6:0 7:0.166667 8:0 9:0 10:0 11:0.2 12:0 13:0.223607 14:0 15:0.266667 16:0 17:0 18:0 19:0 20:0 21:0.0471405 22:0 23:0.0666667 24:0 25:0 26:0 27:0 28:0 29:0 30:0 31:0 32:0 33:0 34:0 35:0.4 36:0 37:0.447214 38:0 39:0.533333 40:0 41:0 42:0 43:0 44:0 45:0.0942809 46:0 47:0.133333 48:0 49:0 50:0 51:0 52:0 53:0 54:0 55:0 56:0 
-0 1 1 1:0 2:0 3:0.05 4:0 5:0.202259 6:0 7:0.1 8:0 9:0 10:0 11:0.1 12:0 13:0.404519 14:0 15:0.2 16:0 17:0 18:0 19:0 20:0 21:0 22:0 23:0 24:0 25:0 26:0 27:0.2 28:0 29:0.431914 30:0 31:0 32:0 33:0 34:0 35:0 36:0 37:0.377124 38:0 39:0.4 40:0 41:0 42:0 43:0 44:0 45:0 46:0 47:0 48:0 49:0 50:0 51:0 52:0 53:0 54:0 55:0 56:0 
-1 -0 0 1:0.533333 2:0 3:0 4:0 5:0.683333 6:0 7:0 8:0 9:0.533333 10:0 11:0 12:0 13:0.9 14:0 15:0 16:0 17:0.533333 18:0 19:0 20:0 21:0.466667 22:0 23:0 24:0 25:0.0666667 26:0 27:0 28:0 29:0.866667 30:0 31:0 32:0 33:1 34:0 35:0 36:0 37:0.933333 38:0 39:0 40:0 41:1.06667 42:0 43:0 44:0 45:0.733333 46:0 47:0 48:0 49:0 50:0 51:0 52:0 53:0.2 54:0 55:0 56:0 
-0 -1 1 1:0.55 2:0 3:0.0166667 4:0 5:0.216667 6:0 7:0 8:0 9:0.733333 10:0 11:0.0333333 12:0 13:0.0666667 14:0 15:0 16:0 17:0.366667 18:0 19:0 20:0 21:0.366667 22:0 23:0 24:0 25:0.8 26:0 27:0 28:0 29:0.0666667 30:0 31:0 32:0 33:0.666667 34:0 35:0.0666667 36:0 37:0.0666667 38:0 39:0 40:0 41:0.733333 42:0 43:0 44:0 45:0.733333 46:0 47:0 48:0 49:0 50:0 51:0 52:0 53:0 54:0 55:0 56:0 
-1 -0 0 1:0.35 2:0 3:0 4:0 5:0.454044 6:0 7:0 8:0 9:0.333333 10:0 11:0 12:0 13:0.674755 14:0 15:0 16:0 17:0.366667 18:0 19:0 20:0 21:0.233333 22:0 23:0 24:0 25:0 26:0 27:0 28:0 29:0.266667 30:0 31:0 32:0 33:0.666667 34:0 35:0 36:0 37:1.08284 38:0 39:0 40:0 41:0.733333 42:0 43:0 44:0 45:0.466667 46:0 47:0 48:0 49:0 50:0 51:0 52:0 53:0 54:0 55:0 56:0 
-0 -0.5585908325696499 0 1:0.366667 2:0 3:0 4:0 5:0.448215 6:0 7:0 8:0 9:0.366667 10:0 11:0 12:0 13:0.763097 14:0 15:0 16:0 17:0.366667 18:0 19:0 20:0 21:0.133333 22:0 23:0 24:0 25:0.0666667 26:0 27:0 28:0 29:0.682405 30:0 31:0 32:0 33:0.666667 34:0 35:0 36:0 37:0.84379 38:0 39:0 40:0 41:0.733333 42:0 43:0 44:0 45:0.266667 46:0 47:0 48:0 49:0 50:0 51:0 52:0 53:0 54:0 55:0 56:0 
-0 -1 0.8916802445779313 1:0.433333 2:0 3:0 4:0 5:0.39714 6:0 7:0.0333333 8:0 9:0.566667 10:0 11:0 12:0 13:0.460948 14:0 15:0.0666667 16:0 17:0.3 18:0 19:0 20:0 21:0.333333 22:0 23:0 24:0 25:0.6 26:0 27:0 28:0 29:0 30:0 31:0 32:0 33:0.533333 34:0 35:0 36:0 37:0.921895 38:0 39:0.133333 40:0 41:0.6 42:0 43:0 44:0 45:0.666667 46:0 47:0 48:0 49:0 50:0 51:0 52:0 53:0 54:0 55:0 56:0 
-1 -0 0 1:0.383333 2:0 3:0.0166667 4:0 5:0.618107 6:0 7:0 8:0 9:0.7 10:0 11:0.0333333 12:0 13:0.834064 14:0 15:0 16:0 17:0.0666667 18:0 19:0 20:0 21:0.40215 22:0 23:0 24:0 25:0.733333 26:0 27:0 28:0 29:0.44379 30:0 31:0 32:0 33:0.666667 34:0 35:0.0666667 36:0 37:1.22434 38:0 39:0 40:0 41:0.133333 42:0 43:0 44:0 45:0.8043 46:0 47:0 48:0 49:0 50:0 51:0 52:0 53:0 54:0 55:0 56:0 
-1 -0 0 1:0.533333 2:0 3:0 4:0 5:0.494171 6:0 7:0 8:0 9:0.733333 10:0 11:0 12:0 13:0.507869 14:0 15:0 16:0 17:0.333333 18:0 19:0 20:0 21:0.480474 22:0 23:0 24:0 25:0.666667 26:0 27:0 28:0 29:0.266667 30:0 31:0 32:0 33:0.8 34:0 35:0 36:0 37:0.749071 38:0 39:0 40:0 41:0.666667 42:0 43:0 44:0 45:0.894281 46:0 47:0 48:0 49:0 50:0 51:0 52:0 53:0.0666667 54:0 55:0 56:0 
-1 -1 1 1:0.183333 2:0 3:0 4:0 5:0.425611 6:0 7:0 8:0 9:0.133333 10:0 11:0 12:0 13:0.168817 14:0 15:0 16:0 17:0.233333 18:0 19:0 20:0 21:0.682405 22:0 23:0 24:0 25:0 26:0 27:0 28:0 29:0 30:0 31:0 32:0 33:0.266667 34:0 35:0 36:0 37:0.337633 38:0 39:0 40:0 41:0.4 42:0 43:0 44:0 45:0.764809 46:0 47:0 48:0 49:0.0666667 50:0 51:0 52:0 53:0.6 54:0 55:0 56:0 
-0 -1 1 1:0.45 2:0 3:0 4:0 5:0.353934 6:0 7:0 8:0 9:0.233333 10:0 11:0 12:0 13:0.266667 14:0 15:0 16:0 17:0.666667 18:0 19:0 20:0 21:0.441202 22:0 23:0 24:0 25:0 26:0 27:0 28:0 29:0 30:0 31:0 32:0 33:0.466667 34:0 35:0 36:0 37:0.533333 38:0 39:0 40:0 41:0.666667 42:0 43:0 44:0 45:0.815738 46:0 47:0 48:0 49:0.666667 50:0 51:0 52:0 53:0.0666667 54:0 55:0 56:0 
-1 -0 0 1:0.25 2:0 3:0.0166667 4:0 5:0.683479 6:0 7:0 8:0 9:0.166667 10:0 11:0.0333333 12:0 13:0.931476 14:0 15:0 16:0 17:0.333333 18:0 19:0 20:0 21:0.435483 22:0 23:0 24:0 25:0 26:0 27:0.0666667 28:0 29:0.733333 30:0 31:0 32:0 33:0.333333 34:0 35:0 36:0 37:1.12962 38:0 39:0 40:0 41:0.666667 42:0 43:0 44:0 45:0.870966 46:0 47:0 48:0 49:0 50:0 51:0 52:0 53:0 54:0 55:0 56:0 
-1 -1 1 1:0.1 2:0 3:0 4:0 5:0.513097 6:0 7:0.0333333 8:0 9:0.2 10:0 11:0 12:0 13:1.02619 14:0 15:0.0666667 16:0 17:0 18:0 19:0 20:0 21:0 22:0 23:0 24:0 25:0.133333 26:0 27:0 28:0 29:1.26383 30:0 31:0.133333 32:0 33:0.266667 34:0 35:0 36:0 37:0.788562 38:0 39:0 40:0 41:0 42:0 43:0 44:0 45:0 46:0 47:0 48:0 49:0 50:0 51:0 52:0 53:0 54:0 55:0 56:0 
-0 -1 1 1:0.2 2:0 3:0 4:0 5:0.421676 6:0 7:0 8:0 9:0.266667 10:0 11:0 12:0 13:0.843352 14:0 15:0 16:0 17:0.133333 18:0 19:0 20:0 21:0 22:0 23:0 24:0 25:0 26:0 27:0 28:0 29:0.533333 30:0 31:0 32:0 33:0.533333 34:0 35:0 36:0 37:1.15337 38:0 39:0 40:0 41:0.266667 42:0 43:0 44:0 45:0 46:0 47:0 48:0 49:0 50:0 51:0 52:0 53:0 54:0 55:0 56:0 
-1 -1 1 1:0.266667 2:0 3:0.0666667 4:0 5:0.317742 6:0 7:0.0166667 8:0 9:0 10:0 11:0.0666667 12:0 13:0.133333 14:0 15:0.0333333 16:0 17:0.533333 18:0 19:0.0666667 20:0 21:0.50215 22:0 23:0 24:0 25:0 26:0 27:0 28:0 29:0 30:0 31:0 32:0 33:0 34:0 35:0.133333 36:0 37:0.266667 38:0 39:0.0666667 40:0 41:0.466667 42:0 43:0.133333 44:0 45:1.0043 46:0 47:0 48:0 49:0.6 50:0 51:0 52:0 53:0 54:0 55:0 56:0 
-1 -1 1 1:0.0666667 2:0 3:0.0166667 4:0 5:0.438562 6:0 7:0 8:0 9:0.133333 10:0 11:0.0333333 12:0 13:0.810457 14:0 15:0 16:0 17:0 18:0 19:0 20:0 21:0.0666667 22:0 23:0 24:0 25:0 26:0 27:0 28:0 29:0.0666667 30:0 31:0 32:0 33:0.266667 34:0 35:0.0666667 36:0 37:1.55425 38:0 39:0 40:0 41:0 42:0 43:0 44:0 45:0.133333 46:0 47:0 48:0 49:0 50:0 51:0 52:0 53:0 54:0 55:0 56:0 
-0 -1 1 1:0.2 2:0 3:0 4:0 5:0.355119 6:0 7:0.0333333 8:0 9:0.4 10:0 11:0 12:0 13:0.710238 14:0 15:0.0666667 16:0 17:0 18:0 19:0 20:0 21:0 22:0 23:0 24:0 25:0 26:0 27:0 28:0 29:0.588562 30:0 31:0 32:0 33:0.8 34:0 35:0 36:0 37:0.831914 38:0 39:0.133333 40:0 41:0 42:0 43:0 44:0 45:0 46:0 47:0 48:0 49:0 50:0 51:0 52:0 53:0 54:0 55:0 56:0 
-1 -0 0 1:0.1 2:0 3:0 4:0 5:0.642642 6:0 7:0.0166667 8:0 9:0.133333 10:0 11:0 12:0 13:1.25195 14:0 15:0.0333333 16:0 17:0.0666667 18:0 19:0 20:0 21:0.0333333 22:0 23:0 24:0 25:0 26:0 27:0 28:0 29:0.698142 30:0 31:0 32:0 33:0.266667 34:0 35:0 36:0 37:1.80576 38:0 39:0.0666667 40:0 41:0.133333 42:0 43:0 44:0 45:0.0666667 46:0 47:0 48:0 49:0 50:0 51:0 52:0 53:0 54:0 55:0 56:0 
-1 -1 0 1:0.166667 2:0 3:0.0166667 4:0 5:0.517032 6:0 7:0 8:0 9:0.3 10:0 11:0.0333333 12:0 13:1.03406 14:0 15:0 16:0 17:0.0333333 18:0 19:0 20:0 21:0 22:0 23:0 24:0 25:0.133333 26:0 27:0 28:0 29:0.533333 30:0 31:0 32:0 33:0.466667 34:0 35:0.0666667 36:0 37:1.53479 38:0 39:0 40:0 41:0.0666667 42:0 43:0 44:0 45:0 46:0 47:0 48:0 49:0 50:0 51:0 52:0 53:0 54:0 55:0 56:0 
-1 -1 1 1:0.1 2:0 3:0.05 4:0 5:0.415957 6:0 7:0 8:0 9:0 10:0 11:0 12:0 13:0.524045 14:0 15:0 16:0 17:0.2 18:0 19:0.1 20:0 21:0.307869 22:0 23:0 24:0 25:0 26:0 27:0 28:0 29:0 30:0 31:0 32:0 33:0 34:0 35:0 36:0 37:1.04809 38:0 39:0 40:0 41:0.4 42:0 43:0.2 44:0 45:0.615738 46:0 47:0 48:0 49:0 50:0 51:0 52:0 53:0 54:0 55:0 56:0 
-0 -1 1 1:0.233333 2:0 3:0.0166667 4:0 5:0.274536 6:0 7:0 8:0 9:0.466667 10:0 11:0.0333333 12:0 13:0.549071 14:0 15:0 16:0 17:0 18:0 19:0 20:0 21:0 22:0 23:0 24:0 25:0.266667 26:0 27:0.0666667 28:0 29:0.415738 30:0 31:0 32:0 33:0.666667 34:0 35:0 36:0 37:0.682405 38:0 39:0 40:0 41:0 42:0 43:0 44:0 45:0 46:0 47:0 48:0 49:0 50:0 51:0 52:0 53:0 54:0 55:0 56:0 
-0 -1 1 1:0.283333 2:0 3:0.0333333 4:0 5:0.274536 6:0 7:0.0333333 8:0 9:0.133333 10:0 11:0 12:0 13:0.3 14:0 15:0 16:0 17:0.433333 18:0 19:0.0666667 20:0 21:0.249071 22:0 23:0.0666667 24:0 25:0 26:0 27:0 28:0 29:0 30:0 31:0 32:0 33:0.266667 34:0 35:0 36:0 37:0.6 38:0 39:0 40:0 41:0.866667 42:0 43:0.133333 44:0 45:0.498142 46:0 47:0.133333 48:0 49:0 50:0 51:0 52:0 53:0 54:0 55:0 56:0 
-0 -1 1 1:0.233333 2:0 3:0.0166667 4:0 5:0.37561 6:0 7:0 8:0 9:0.433333 10:0 11:0.0333333 12:0 13:0.717888 14:0 15:0 16:0 17:0.0333333 18:0 19:0 20:0 21:0.0333333 22:0 23:0 24:0 25:0.0666667 26:0 27:0 28:0 29:0.549071 30:0 31:0 32:0 33:0.8 34:0 35:0.0666667 36:0 37:0.886704 38:0 39:0 40:0 41:0.0666667 42:0 43:0 44:0 45:0.0666667 46:0 47:0 48:0 49:0 50:0 51:0 52:0 53:0 54:0 55:0 56:0 
-0 -1 1 1:0.216667 2:0 3:0.05 4:0 5:0.314882 6:0 7:0.0333333 8:0 9:0 10:0 11:0 12:0 13:0 14:0 15:0 16:0 17:0.433333 18:0 19:0.1 20:0 21:0.629764 22:0 23:0.0666667 24:0 25:0 26:0 27:0 28:0 29:0 30:0 31:0 32:0 33:0 34:0 35:0 36:0 37:0 38:0 39:0 40:0 41:0.266667 42:0 43:0.0666667 44:0 45:0.926195 46:0 47:0 48:0 49:0.6 50:0 51:0.133333 52:0 53:0.333333 54:0 55:0.133333 56:0 
-1 -1 0 1:0.233333 2:0 3:0.0333333 4:0 5:0.442496 6:0 7:0 8:0 9:0.3 10:0 11:0.0666667 12:0 13:0.884993 14:0 15:0 16:0 17:0.166667 18:0 19:0 20:0 21:0 22:0 23:0 24:0 25:0.133333 26:0 27:0 28:0 29:0.577124 30:0 31:0 32:0 33:0.466667 34:0 35:0.133333 36:0 37:1.19286 38:0 39:0 40:0 41:0.333333 42:0 43:0 44:0 45:0 46:0 47:0 48:0 49:0 50:0 51:0 52:0 53:0 54:0 55:0 56:0 
-1 -1 0 1:0.0833333 2:0 3:0.0666667 4:0 5:0.537633 6:0 7:0.0333333 8:0 9:0.0666667 10:0 11:0.133333 12:0 13:1.0086 14:0 15:0.0666667 16:0 17:0.1 18:0 19:0 20:0 21:0.0666667 22:0 23:0 24:0 25:0 26:0 27:0 28:0 29:0.415738 30:0 31:0 32:0 33:0.133333 34:0 35:0.266667 36:0 37:1.60146 38:0 39:0.133333 40:0 41:0.2 42:0 43:0 44:0 45:0.133333 46:0 47:0 48:0 49:0 50:0 51:0 52:0 53:0 54:0 55:0 56:0 
-1 -1 1 1:0.233333 2:0 3:0.05 4:0 5:0.407869 6:0 7:0 8:0 9:0.4 10:0 11:0.1 12:0 13:0.3 14:0 15:0 16:0 17:0.0666667 18:0 19:0 20:0 21:0.515738 22:0 23:0 24:0 25:0 26:0 27:0 28:0 29:0 30:0 31:0 32:0 33:0.8 34:0 35:0.2 36:0 37:0.6 38:0 39:0 40:0 41:0.133333 42:0 43:0 44:0 45:1.03148 46:0 47:0 48:0 49:0 50:0 51:0 52:0 53:0 54:0 55:0 56:0 
-1 -1 1 1:0.2 2:0 3:0 4:0 5:0.403934 6:0 7:0 8:0 9:0.333333 10:0 11:0 12:0 13:0.407869 14:0 15:0 16:0 17:0.0666667 18:0 19:0 20:0 21:0.4 22:0 23:0 24:0 25:0 26:0 27:0 28:0 29:0.0666667 30:0 31:0 32:0 33:0.666667 34:0 35:0 36:0 37:0.749071 38:0 39:0 40:0 41:0.133333 42:0 43:0 44:0 45:0.8 46:0 47:0 48:0 49:0 50:0 51:0 52:0 53:0 54:0 55:0 56:0 
-0 -1 1 1:0.316667 2:0 3:0 4:0 5:0.4 6:0 7:0 8:0 9:0.633333 10:0 11:0 12:0 13:0.8 14:0 15:0 16:0 17:0 18:0 19:0 20:0 21:0 22:0 23:0 24:0 25:0.533333 26:0 27:0 28:0 29:0.866667 30:0 31:0 32:0 33:0.733333 34:0 35:0 36:0 37:0.733333 38:0 39:0 40:0 41:0 42:0 43:0 44:0 45:0 46:0 47:0 48:0 49:0 50:0 51:0 52:0 53:0 54:0 55:0 56:0 
-0 -1 1 1:0.366667 2:0 3:0 4:0 5:0.35 6:0 7:0 8:0 9:0.6 10:0 11:0 12:0 13:0.466667 14:0 15:0 16:0 17:0.133333 18:0 19:0 20:0 21:0.233333 22:0 23:0 24:0 25:0.4 26:0 27:0 28:0 29:0 30:0 31:0 32:0 33:0.8 34:0 35:0 36:0 37:0.933333 38:0 39:0 40:0 41:0.266667 42:0 43:0 44:0 45:0.466667 46:0 47:0 48:0 49:0 50:0 51:0 52:0 53:0 54:0 55:0 56:0 
-0 -1 1 1:0.166667 2:0 3:0 4:0 5:0.320601 6:0 7:0.0166667 8:0 9:0.333333 10:0 11:0 12:0 13:0.374536 14:0 15:0.0333333 16:0 17:0 18:0 19:0 20:0 21:0.266667 22:0 23:0 24:0 25:0 26:0 27:0 28:0 29:0 30:0 31:0 32:0 33:0.666667 34:0 35:0 36:0 37:0.749071 38:0 39:0.0666667 40:0 41:0 42:0 43:0 44:0 45:0.533333 46:0 47:0 48:0 49:0 50:0 51:0 52:0 53:0 54:0 55:0 56:0 
-1 -0 0 1:0.233333 2:0 3:0.0333333 4:0 5:0.600365 6:0 7:0.0166667 8:0 9:0.333333 10:0 11:0.0666667 12:0 13:1.01217 14:0 15:0 16:0 17:0.133333 18:0 19:0 20:0 21:0.188562 22:0 23:0.0333333 24:0 25:0.2 26:0 27:0.133333 28:0 29:0.721895 30:0 31:0 32:0 33:0.466667 34:0 35:0 36:0 37:1.30244 38:0 39:0 40:0 41:0.266667 42:0 43:0 44:0 45:0.377124 46:0 47:0.0666667 48:0 49:0 50:0 51:0 52:0 53:0 54:0 55:0 56:0 
-0 -1 1 1:0.0833333 2:0 3:0 4:0 5:0.183333 6:0 7:0 8:0 9:0.166667 10:0 11:0 12:0 13:0.366667 14:0 15:0 16:0 17:0 18:0 19:0 20:0 21:0 22:0 23:0 24:0 25:0 26:0 27:0 28:0 29:0.333333 30:0 31:0 32:0 33:0.333333 34:0 35:0 36:0 37:0.4 38:0 39:0 40:0 41:0 42:0 43:0 44:0 45:0 46:0 47:0 48:0 49:0 50:0 51:0 52:0 53:0 54:0 55:0 56:0 
-0 -1 1 1:0.3 2:0 3:0 4:0 5:0.3 6:0 7:0 8:0 9:0.533333 10:0 11:0 12:0 13:0.6 14:0 15:0 16:0 17:0.0666667 18:0 19:0 20:0 21:0 22:0 23:0 24:0 25:0 26:0 27:0 28:0 29:0.6 30:0 31:0 32:0 33:1.06667 34:0 35:0 36:0 37:0.6 38:0 39:0 40:0 41:0.133333 42:0 43:0 44:0 45:0 46:0 47:0 48:0 49:0 50:0 51:0 52:0 53:0 54:0 55:0 56:0 
-1 -0 0 1:0.166667 2:0 3:0 4:0 5:0.629691 6:0 7:0.0333333 8:0 9:0.166667 10:0 11:0 12:0 13:1.25938 14:0 15:0.0666667 16:0 17:0.166667 18:0 19:0 20:0 21:0 22:0 23:0 24:0 25:0.0666667 26:0 27:0 28:0 29:0.686704 30:0 31:0.133333 32:0 33:0.266667 34:0 35:0 36:0 37:1.83206 38:0 39:0 40:0 41:0.333333 42:0 43:0 44:0 45:0 46:0 47:0 48:0 49:0 50:0 51:0 52:0 53:0 54:0 55:0 56:0 
-0 -1 1 1:0.183333 2:0 3:0.0833333 4:0 5:0.312023 6:0 7:0.05 8:0 9:0.366667 10:0 11:0.166667 12:0 13:0.624045 14:0 15:0.1 16:0 17:0 18:0 19:0 20:0 21:0 22:0 23:0 24:0 25:0.4 26:0 27:0.266667 28:0 29:0.899019 30:0 31:0.0666667 32:0 33:0.333333 34:0 35:0.0666667 36:0 37:0.349071 38:0 39:0.133333 40:0 41:0 42:0 43:0 44:0 45:0 46:0 47:0 48:0 49:0 50:0 51:0 52:0 53:0 54:0 55:0 56:0 
-1 -1 0 1:0.2 2:0 3:0.0333333 4:0 5:0.476905 6:0 7:0.0333333 8:0 9:0.366667 10:0 11:0.0666667 12:0 13:0.953809 14:0 15:0.0666667 16:0 17:0.0333333 18:0 19:0 20:0 21:0 22:0 23:0 24:0 25:0.133333 26:0 27:0.133333 28:0 29:0.415738 30:0 31:0 32:0 33:0.6 34:0 35:0 36:0 37:1.49188 38:0 39:0.133333 40:0 41:0.0666667 42:0 43:0 44:0 45:0 46:0 47:0 48:0 49:0 50:0 51:0 52:0 53:0 54:0 55:0 56:0 
-1 -1 0.902369962177465 1:0.166667 2:0 3:0.0333333 4:0 5:0.467032 6:0 7:0 8:0 9:0.333333 10:0 11:0.0666667 12:0 13:0.934064 14:0 15:0 16:0 17:0 18:0 19:0 20:0 21:0 22:0 23:0 24:0 25:0.133333 26:0 27:0.133333 28:0 29:0.753371 30:0 31:0 32:0 33:0.533333 34:0 35:0 36:0 37:1.11476 38:0 39:0 40:0 41:0 42:0 43:0 44:0 45:0 46:0 47:0 48:0 49:0 50:0 51:0 52:0 53:0 54:0 55:0 56:0 
-1 -1 0 1:0.3 2:0 3:0.0333333 4:0 5:0.525611 6:0 7:0.0166667 8:0 9:0.466667 10:0 11:0.0666667 12:0 13:1.05122 14:0 15:0.0333333 16:0 17:0.133333 18:0 19:0 20:0 21:0 22:0 23:0 24:0 25:0.666667 26:0 27:0.133333 28:0 29:0.8043 30:0 31:0.0666667 32:0 33:0.266667 34:0 35:0 36:0 37:1.29814 38:0 39:0 40:0 41:0.266667 42:0 43:0 44:0 45:0 46:0 47:0 48:0 49:0 50:0 51:0 52:0 53:0 54:0 55:0 56:0 
-0 -1 1 1:0.2 2:0 3:0 4:0 5:0.283333 6:0 7:0 8:0 9:0.4 10:0 11:0 12:0 13:0.566667 14:0 15:0 16:0 17:0 18:0 19:0 20:0 21:0 22:0 23:0 24:0 25:0.266667 26:0 27:0 28:0 29:0.6 30:0 31:0 32:0 33:0.533333 34:0 35:0 36:0 37:0.533333 38:0 39:0 40:0 41:0 42:0 43:0 44:0 45:0 46:0 47:0 48:0 49:0 50:0 51:0 52:0 53:0 54:0 55:0 56:0 
-0 -1 1 1:0.2 2:0 3:0 4:0 5:0.328689 6:0 7:0 8:0 9:0.4 10:0 11:0 12:0 13:0.657378 14:0 15:0 16:0 17:0 18:0 19:0 20:0 21:0 22:0 23:0 24:0 25:0 26:0 27:0 28:0 29:0.4043 30:0 31:0 32:0 33:0.8 34:0 35:0 36:0 37:0.910457 38:0 39:0 40:0 41:0 42:0 43:0 44:0 45:0 46:0 47:0 48:0 49:0 50:0 51:0 52:0 53:0 54:0 55:0 56:0 
-1 -1 1 1:0.116667 2:0 3:0 4:0 5:0.422751 6:0 7:0 8:0 9:0.233333 10:0 11:0 12:0 13:0.845502 14:0 15:0 16:0 17:0 18:0 19:0 20:0 21:0 22:0 23:0 24:0 25:0.2 26:0 27:0 28:0 29:0.415738 30:0 31:0 32:0 33:0.266667 34:0 35:0 36:0 37:1.27527 38:0 39:0 40:0 41:0 42:0 43:0 44:0 45:0 46:0 47:0 48:0 49:0 50:0 51:0 52:0 53:0 54:0 55:0 56:0 
-1 -1 0 1:0.166667 2:0 3:0.0333333 4:0 5:0.528689 6:0 7:0 8:0 9:0.233333 10:0 11:0.0666667 12:0 13:1.05738 14:0 15:0 16:0 17:0.1 18:0 19:0 20:0 21:0 22:0 23:0 24:0 25:0 26:0 27:0 28:0 29:0.855228 30:0 31:0 32:0 33:0.466667 34:0 35:0.133333 36:0 37:1.25953 38:0 39:0 40:0 41:0.2 42:0 43:0 44:0 45:0 46:0 47:0 48:0 49:0 50:0 51:0 52:0 53:0 54:0 55:0 56:0 
-1 -1 0 1:0.2 2:0 3:0.133333 4:0 5:0.614172 6:0 7:0.0166667 8:0 9:0.133333 10:0 11:0.266667 12:0 13:1.22834 14:0 15:0.0333333 16:0 17:0.266667 18:0 19:0 20:0 21:0 22:0 23:0 24:0 25:0 26:0 27:0.4 28:0 29:1.0043 30:0 31:0 32:0 33:0.266667 34:0 35:0.133333 36:0 37:1.45239 38:0 39:0.0666667 40:0 41:0.533333 42:0 43:0 44:0 45:0 46:0 47:0 48:0 49:0 50:0 51:0 52:0 53:0 54:0 55:0 56:0 
-1 -1 0 1:0.183333 2:0 3:0 4:0 5:0.539637 6:0 7:0 8:0 9:0.333333 10:0 11:0 12:0 13:1.07927 14:0 15:0 16:0 17:0.0333333 18:0 19:0 20:0 21:0 22:0 23:0 24:0 25:0.133333 26:0 27:0 28:0 29:0.965685 30:0 31:0 32:0 33:0.533333 34:0 35:0 36:0 37:1.19286 38:0 39:0 40:0 41:0.0666667 42:0 43:0 44:0 45:0 46:0 47:0 48:0 49:0 50:0 51:0 52:0 53:0 54:0 55:0 56:0 
-1 -0 0 1:0.183333 2:0 3:0.0333333 4:0 5:0.557378 6:0 7:0 8:0 9:0.333333 10:0 11:0.0666667 12:0 13:1.11476 14:0 15:0 16:0 17:0.0333333 18:0 19:0 20:0 21:0 22:0 23:0 24:0 25:0 26:0 27:0.133333 28:0 29:0.792862 30:0 31:0 32:0 33:0.666667 34:0 35:0 36:0 37:1.43665 38:0 39:0 40:0 41:0.0666667 42:0 43:0 44:0 45:0 46:0 47:0 48:0 49:0 50:0 51:0 52:0 53:0 54:0 55:0 56:0 
-1 -1 1 1:0.116667 2:0 3:0.1 4:0 5:0.496212 6:0 7:0 8:0 9:0.2 10:0 11:0.133333 12:0 13:0.710019 14:0 15:0 16:0 17:0.0333333 18:0 19:0.0666667 20:0 21:0.282405 22:0 23:0 24:0 25:0 26:0 27:0 28:0 29:0.266667 30:0 31:0 32:0 33:0.4 34:0 35:0.266667 36:0 37:1.15337 38:0 39:0 40:0 41:0.0666667 42:0 43:0.133333 44:0 45:0.564809 46:0 47:0 48:0 49:0 50:0 51:0 52:0 53:0 54:0 55:0 56:0 
-0 -1 -0 1:0 2:0 3:0 4:0 5:0 6:0 7:0 8:0 9:0 10:0 11:0 12:0 13:0 14:0 15:0 16:0 17:0 18:0 19:0 20:0 21:0 22:0 23:0 24:0 25:0 26:0 27:0 28:0 29:0 30:0 31:0 32:0 33:0 34:0 35:0 36:0 37:0 38:0 39:0 40:0 41:0 42:0 43:0 44:0 45:0 46:0 47:0 48:0 49:0 50:0 51:0 52:0 53:0 54:0 55:0 56:0 
-0 -1 -0 1:0 2:0 3:0 4:0 5:0 6:0 7:0 8:0 9:0 10:0 11:0 12:0 13:0 14:0 15:0 16:0 17:0 18:0 19:0 20:0 21:0 22:0 23:0 24:0 25:0 26:0 27:0 28:0 29:0 30:0 31:0 32:0 33:0 34:0 35:0 36:0 37:0 38:0 39:0 40:0 41:0 42:0 43:0 44:0 45:0 46:0 47:0 48:0 49:0 50:0 51:0 52:0 53:0 54:0 55:0 56:0 
-0 -1 -0 1:0 2:0 3:0 4:0 5:0 6:0 7:0 8:0 9:0 10:0 11:0 12:0 13:0 14:0 15:0 16:0 17:0 18:0 19:0 20:0 21:0 22:0 23:0 24:0 25:0 26:0 27:0 28:0 29:0 30:0 31:0 32:0 33:0 34:0 35:0 36:0 37:0 38:0 39:0 40:0 41:0 42:0 43:0 44:0 45:0 46:0 47:0 48:0 49:0 50:0 51:0 52:0 53:0 54:0 55:0 56:0 
-0 -1 -0 1:0 2:0 3:0 4:0 5:0 6:0 7:0 8:0 9:0 10:0 11:0 12:0 13:0 14:0 15:0 16:0 17:0 18:0 19:0 20:0 21:0 22:0 23:0 24:0 25:0 26:0 27:0 28:0 29:0 30:0 31:0 32:0 33:0 34:0 35:0 36:0 37:0 38:0 39:0 40:0 41:0 42:0 43:0 44:0 45:0 46:0 47:0 48:0 49:0 50:0 51:0 52:0 53:0 54:0 55:0 56:0 
-0 -1 -0 1:0 2:0 3:0 4:0 5:0 6:0 7:0 8:0 9:0 10:0 11:0 12:0 13:0 14:0 15:0 16:0 17:0 18:0 19:0 20:0 21:0 22:0 23:0 24:0 25:0 26:0 27:0 28:0 29:0 30:0 31:0 32:0 33:0 34:0 35:0 36:0 37:0 38:0 39:0 40:0 41:0 42:0 43:0 44:0 45:0 46:0 47:0 48:0 49:0 50:0 51:0 52:0 53:0 54:0 55:0 56:0 
-0 -1 -0 1:0 2:0 3:0 4:0 5:0 6:0 7:0 8:0 9:0 10:0 11:0 12:0 13:0 14:0 15:0 16:0 17:0 18:0 19:0 20:0 21:0 22:0 23:0 24:0 25:0 26:0 27:0 28:0 29:0 30:0 31:0 32:0 33:0 34:0 35:0 36:0 37:0 38:0 39:0 40:0 41:0 42:0 43:0 44:0 45:0 46:0 47:0 48:0 49:0 50:0 51:0 52:0 53:0 54:0 55:0 56:0 
-0 -1 -0 1:0 2:0 3:0 4:0 5:0 6:0 7:0 8:0 9:0 10:0 11:0 12:0 13:0 14:0 15:0 16:0 17:0 18:0 19:0 20:0 21:0 22:0 23:0 24:0 25:0 26:0 27:0 28:0 29:0 30:0 31:0 32:0 33:0 34:0 35:0 36:0 37:0 38:0 39:0 40:0 41:0 42:0 43:0 44:0 45:0 46:0 47:0 48:0 49:0 50:0 51:0 52:0 53:0 54:0 55:0 56:0 
-0 -1 -0 1:0 2:0 3:0 4:0 5:0 6:0 7:0 8:0 9:0 10:0 11:0 12:0 13:0 14:0 15:0 16:0 17:0 18:0 19:0 20:0 21:0 22:0 23:0 24:0 25:0 26:0 27:0 28:0 29:0 30:0 31:0 32:0 33:0 34:0 35:0 36:0 37:0 38:0 39:0 40:0 41:0 42:0 43:0 44:0 45:0 46:0 47:0 48:0 49:0 50:0 51:0 52:0 53:0 54:0 55:0 56:0 
-0 -1 -0 1:0 2:0 3:0 4:0 5:0 6:0 7:0 8:0 9:0 10:0 11:0 12:0 13:0 14:0 15:0 16:0 17:0 18:0 19:0 20:0 21:0 22:0 23:0 24:0 25:0 26:0 27:0 28:0 29:0 30:0 31:0 32:0 33:0 34:0 35:0 36:0 37:0 38:0 39:0 40:0 41:0 42:0 43:0 44:0 45:0 46:0 47:0 48:0 49:0 50:0 51:0 52:0 53:0 54:0 55:0 56:0 
-0 -1 -0 1:0 2:0 3:0 4:0 5:0 6:0 7:0 8:0 9:0 10:0 11:0 12:0 13:0 14:0 15:0 16:0 17:0 18:0 19:0 20:0 21:0 22:0 23:0 24:0 25:0 26:0 27:0 28:0 29:0 30:0 31:0 32:0 33:0 34:0 35:0 36:0 37:0 38:0 39:0 40:0 41:0 42:0 43:0 44:0 45:0 46:0 47:0 48:0 49:0 50:0 51:0 52:0 53:0 54:0 55:0 56:0 
-0 -1 -0 1:0 2:0 3:0 4:0 5:0 6:0 7:0 8:0 9:0 10:0 11:0 12:0 13:0 14:0 15:0 16:0 17:0 18:0 19:0 20:0 21:0 22:0 23:0 24:0 25:0 26:0 27:0 28:0 29:0 30:0 31:0 32:0 33:0 34:0 35:0 36:0 37:0 38:0 39:0 40:0 41:0 42:0 43:0 44:0 45:0 46:0 47:0 48:0 49:0 50:0 51:0 52:0 53:0 54:0 55:0 56:0 
-0 -1 -0 1:0 2:0 3:0 4:0 5:0 6:0 7:0 8:0 9:0 10:0 11:0 12:0 13:0 14:0 15:0 16:0 17:0 18:0 19:0 20:0 21:0 22:0 23:0 24:0 25:0 26:0 27:0 28:0 29:0 30:0 31:0 32:0 33:0 34:0 35:0 36:0 37:0 38:0 39:0 40:0 41:0 42:0 43:0 44:0 45:0 46:0 47:0 48:0 49:0 50:0 51:0 52:0 53:0 54:0 55:0 56:0 
-0 -1 -0 1:0 2:0 3:0 4:0 5:0 6:0 7:0 8:0 9:0 10:0 11:0 12:0 13:0 14:0 15:0 16:0 17:0 18:0 19:0 20:0 21:0 22:0 23:0 24:0 25:0 26:0 27:0 28:0 29:0 30:0 31:0 32:0 33:0 34:0 35:0 36:0 37:0 38:0 39:0 40:0 41:0 42:0 43:0 44:0 45:0 46:0 47:0 48:0 49:0 50:0 51:0 52:0 53:0 54:0 55:0 56:0 
-0 -1 -0 1:0 2:0 3:0 4:0 5:0 6:0 7:0 8:0 9:0 10:0 11:0 12:0 13:0 14:0 15:0 16:0 17:0 18:0 19:0 20:0 21:0 22:0 23:0 24:0 25:0 26:0 27:0 28:0 29:0 30:0 31:0 32:0 33:0 34:0 35:0 36:0 37:0 38:0 39:0 40:0 41:0 42:0 43:0 44:0 45:0 46:0 47:0 48:0 49:0 50:0 51:0 52:0 53:0 54:0 55:0 56:0 
-0 -1 -0 1:0 2:0 3:0 4:0 5:0 6:0 7:0 8:0 9:0 10:0 11:0 12:0 13:0 14:0 15:0 16:0 17:0 18:0 19:0 20:0 21:0 22:0 23:0 24:0 25:0 26:0 27:0 28:0 29:0 30:0 31:0 32:0 33:0 34:0 35:0 36:0 37:0 38:0 39:0 40:0 41:0 42:0 43:0 44:0 45:0 46:0 47:0 48:0 49:0 50:0 51:0 52:0 53:0 54:0 55:0 56:0 
-0 -1 -0 1:0 2:0 3:0 4:0 5:0 6:0 7:0 8:0 9:0 10:0 11:0 12:0 13:0 14:0 15:0 16:0 17:0 18:0 19:0 20:0 21:0 22:0 23:0 24:0 25:0 26:0 27:0 28:0 29:0 30:0 31:0 32:0 33:0 34:0 35:0 36:0 37:0 38:0 39:0 40:0 41:0 42:0 43:0 44:0 45:0 46:0 47:0 48:0 49:0 50:0 51:0 52:0 53:0 54:0 55:0 56:0 
-0 -1 -0 1:0 2:0 3:0 4:0 5:0 6:0 7:0 8:0 9:0 10:0 11:0 12:0 13:0 14:0 15:0 16:0 17:0 18:0 19:0 20:0 21:0 22:0 23:0 24:0 25:0 26:0 27:0 28:0 29:0 30:0 31:0 32:0 33:0 34:0 35:0 36:0 37:0 38:0 39:0 40:0 41:0 42:0 43:0 44:0 45:0 46:0 47:0 48:0 49:0 50:0 51:0 52:0 53:0 54:0 55:0 56:0 
-0 -1 -0 1:0 2:0 3:0 4:0 5:0 6:0 7:0 8:0 9:0 10:0 11:0 12:0 13:0 14:0 15:0 16:0 17:0 18:0 19:0 20:0 21:0 22:0 23:0 24:0 25:0 26:0 27:0 28:0 29:0 30:0 31:0 32:0 33:0 34:0 35:0 36:0 37:0 38:0 39:0 40:0 41:0 42:0 43:0 44:0 45:0 46:0 47:0 48:0 49:0 50:0 51:0 52:0 53:0 54:0 55:0 56:0 
-0 -1 -0 1:0 2:0 3:0 4:0 5:0 6:0 7:0 8:0 9:0 10:0 11:0 12:0 13:0 14:0 15:0 16:0 17:0 18:0 19:0 20:0 21:0 22:0 23:0 24:0 25:0 26:0 27:0 28:0 29:0 30:0 31:0 32:0 33:0 34:0 35:0 36:0 37:0 38:0 39:0 40:0 41:0 42:0 43:0 44:0 45:0 46:0 47:0 48:0 49:0 50:0 51:0 52:0 53:0 54:0 55:0 56:0 
-0 -1 -0 1:0 2:0 3:0 4:0 5:0 6:0 7:0 8:0 9:0 10:0 11:0 12:0 13:0 14:0 15:0 16:0 17:0 18:0 19:0 20:0 21:0 22:0 23:0 24:0 25:0 26:0 27:0 28:0 29:0 30:0 31:0 32:0 33:0 34:0 35:0 36:0 37:0 38:0 39:0 40:0 41:0 42:0 43:0 44:0 45:0 46:0 47:0 48:0 49:0 50:0 51:0 52:0 53:0 54:0 55:0 56:0 
-0 -1 -0 1:0 2:0 3:0 4:0 5:0 6:0 7:0 8:0 9:0 10:0 11:0 12:0 13:0 14:0 15:0 16:0 17:0 18:0 19:0 20:0 21:0 22:0 23:0 24:0 25:0 26:0 27:0 28:0 29:0 30:0 31:0 32:0 33:0 34:0 35:0 36:0 37:0 38:0 39:0 40:0 41:0 42:0 43:0 44:0 45:0 46:0 47:0 48:0 49:0 50:0 51:0 52:0 53:0 54:0 55:0 56:0 
-0 -1 -0 1:0 2:0 3:0 4:0 5:0 6:0 7:0 8:0 9:0 10:0 11:0 12:0 13:0 14:0 15:0 16:0 17:0 18:0 19:0 20:0 21:0 22:0 23:0 24:0 25:0 26:0 27:0 28:0 29:0 30:0 31:0 32:0 33:0 34:0 35:0 36:0 37:0 38:0 39:0 40:0 41:0 42:0 43:0 44:0 45:0 46:0 47:0 48:0 49:0 50:0 51:0 52:0 53:0 54:0 55:0 56:0 
-0 -1 -0 1:0 2:0 3:0 4:0 5:0 6:0 7:0 8:0 9:0 10:0 11:0 12:0 13:0 14:0 15:0 16:0 17:0 18:0 19:0 20:0 21:0 22:0 23:0 24:0 25:0 26:0 27:0 28:0 29:0 30:0 31:0 32:0 33:0 34:0 35:0 36:0 37:0 38:0 39:0 40:0 41:0 42:0 43:0 44:0 45:0 46:0 47:0 48:0 49:0 50:0 51:0 52:0 53:0 54:0 55:0 56:0 
-0 -1 -0.829708652734785 1:0 2:0 3:0 4:0 5:0 6:0 7:0 8:0 9:0 10:0 11:0 12:0 13:0 14:0 15:0 16:0 17:0 18:0 19:0 20:0 21:0 22:0 23:0 24:0 25:0 26:0 27:0 28:0 29:0 30:0 31:0 32:0 33:0 34:0 35:0 36:0 37:0 38:0 39:0 40:0 41:0 42:0 43:0 44:0 45:0 46:0 47:0 48:0 49:0 50:0 51:0 52:0 53:0 54:0 55:0 56:0 
-0 -1 -1 1:0 2:0 3:0 4:0 5:0 6:0 7:0 8:0 9:0 10:0 11:0 12:0 13:0 14:0 15:0 16:0 17:0 18:0 19:0 20:0 21:0 22:0 23:0 24:0 25:0 26:0 27:0 28:0 29:0 30:0 31:0 32:0 33:0 34:0 35:0 36:0 37:0 38:0 39:0 40:0 41:0 42:0 43:0 44:0 45:0 46:0 47:0 48:0 49:0 50:0 51:0 52:0 53:0 54:0 55:0 56:0 
-0 -1 -1 1:0 2:0 3:0 4:0 5:0 6:0 7:0 8:0 9:0 10:0 11:0 12:0 13:0 14:0 15:0 16:0 17:0 18:0 19:0 20:0 21:0 22:0 23:0 24:0 25:0 26:0 27:0 28:0 29:0 30:0 31:0 32:0 33:0 34:0 35:0 36:0 37:0 38:0 39:0 40:0 41:0 42:0 43:0 44:0 45:0 46:0 47:0 48:0 49:0 50:0 51:0 52:0 53:0 54:0 55:0 56:0 
-0 -1 -1 1:0 2:0 3:0 4:0 5:0 6:0 7:0 8:0 9:0 10:0 11:0 12:0 13:0 14:0 15:0 16:0 17:0 18:0 19:0 20:0 21:0 22:0 23:0 24:0 25:0 26:0 27:0 28:0 29:0 30:0 31:0 32:0 33:0 34:0 35:0 36:0 37:0 38:0 39:0 40:0 41:0 42:0 43:0 44:0 45:0 46:0 47:0 48:0 49:0 50:0 51:0 52:0 53:0 54:0 55:0 56:0 
-0 -1 -1 1:0 2:0 3:0 4:0 5:0 6:0 7:0 8:0 9:0 10:0 11:0 12:0 13:0 14:0 15:0 16:0 17:0 18:0 19:0 20:0 21:0 22:0 23:0 24:0 25:0 26:0 27:0 28:0 29:0 30:0 31:0 32:0 33:0 34:0 35:0 36:0 37:0 38:0 39:0 40:0 41:0 42:0 43:0 44:0 45:0 46:0 47:0 48:0 49:0 50:0 51:0 52:0 53:0 54:0 55:0 56:0 
-0 -1 -1 1:0 2:0 3:0 4:0 5:0 6:0 7:0 8:0 9:0 10:0 11:0 12:0 13:0 14:0 15:0 16:0 17:0 18:0 19:0 20:0 21:0 22:0 23:0 24:0 25:0 26:0 27:0 28:0 29:0 30:0 31:0 32:0 33:0 34:0 35:0 36:0 37:0 38:0 39:0 40:0 41:0 42:0 43:0 44:0 45:0 46:0 47:0 48:0 49:0 50:0 51:0 52:0 53:0 54:0 55:0 56:0 
-0 -1 -1 1:0 2:0 3:0 4:0 5:0 6:0 7:0 8:0 9:0 10:0 11:0 12:0 13:0 14:0 15:0 16:0 17:0 18:0 19:0 20:0 21:0 22:0 23:0 24:0 25:0 26:0 27:0 28:0 29:0 30:0 31:0 32:0 33:0 34:0 35:0 36:0 37:0 38:0 39:0 40:0 41:0 42:0 43:0 44:0 45:0 46:0 47:0 48:0 49:0 50:0 51:0 52:0 53:0 54:0 55:0 56:0 
-0 -1 -1 1:0 2:0 3:0 4:0 5:0 6:0 7:0 8:0 9:0 10:0 11:0 12:0 13:0 14:0 15:0 16:0 17:0 18:0 19:0 20:0 21:0 22:0 23:0 24:0 25:0 26:0 27:0 28:0 29:0 30:0 31:0 32:0 33:0 34:0 35:0 36:0 37:0 38:0 39:0 40:0 41:0 42:0 43:0 44:0 45:0 46:0 47:0 48:0 49:0 50:0 51:0 52:0 53:0 54:0 55:0 56:0 
-0 -1 -1 1:0 2:0 3:0 4:0 5:0 6:0 7:0 8:0 9:0 10:0 11:0 12:0 13:0 14:0 15:0 16:0 17:0 18:0 19:0 20:0 21:0 22:0 23:0 24:0 25:0 26:0 27:0 28:0 29:0 30:0 31:0 32:0 33:0 34:0 35:0 36:0 37:0 38:0 39:0 40:0 41:0 42:0 43:0 44:0 45:0 46:0 47:0 48:0 49:0 50:0 51:0 52:0 53:0 54:0 55:0 56:0 
-0 -1 -1 1:0 2:0 3:0 4:0 5:0 6:0 7:0 8:0 9:0 10:0 11:0 12:0 13:0 14:0 15:0 16:0 17:0 18:0 19:0 20:0 21:0 22:0 23:0 24:0 25:0 26:0 27:0 28:0 29:0 30:0 31:0 32:0 33:0 34:0 35:0 36:0 37:0 38:0 39:0 40:0 41:0 42:0 43:0 44:0 45:0 46:0 47:0 48:0 49:0 50:0 51:0 52:0 53:0 54:0 55:0 56:0 
-0 -1 -1 1:0 2:0 3:0 4:0 5:0 6:0 7:0 8:0 9:0 10:0 11:0 12:0 13:0 14:0 15:0 16:0 17:0 18:0 19:0 20:0 21:0 22:0 23:0 24:0 25:0 26:0 27:0 28:0 29:0 30:0 31:0 32:0 33:0 34:0 35:0 36:0 37:0 38:0 39:0 40:0 41:0 42:0 43:0 44:0 45:0 46:0 47:0 48:0 49:0 50:0 51:0 52:0 53:0 54:0 55:0 56:0 
-0 -1 -1 1:0 2:0 3:0 4:0 5:0 6:0 7:0 8:0 9:0 10:0 11:0 12:0 13:0 14:0 15:0 16:0 17:0 18:0 19:0 20:0 21:0 22:0 23:0 24:0 25:0 26:0 27:0 28:0 29:0 30:0 31:0 32:0 33:0 34:0 35:0 36:0 37:0 38:0 39:0 40:0 41:0 42:0 43:0 44:0 45:0 46:0 47:0 48:0 49:0 50:0 51:0 52:0 53:0 54:0 55:0 56:0 
-0 -1 -1 1:0 2:0 3:0 4:0 5:0 6:0 7:0 8:0 9:0 10:0 11:0 12:0 13:0 14:0 15:0 16:0 17:0 18:0 19:0 20:0 21:0 22:0 23:0 24:0 25:0 26:0 27:0 28:0 29:0 30:0 31:0 32:0 33:0 34:0 35:0 36:0 37:0 38:0 39:0 40:0 41:0 42:0 43:0 44:0 45:0 46:0 47:0 48:0 49:0 50:0 51:0 52:0 53:0 54:0 55:0 56:0 
-0 -1 -1 1:0 2:0 3:0 4:0 5:0 6:0 7:0 8:0 9:0 10:0 11:0 12:0 13:0 14:0 15:0 16:0 17:0 18:0 19:0 20:0 21:0 22:0 23:0 24:0 25:0 26:0 27:0 28:0 29:0 30:0 31:0 32:0 33:0 34:0 35:0 36:0 37:0 38:0 39:0 40:0 41:0 42:0 43:0 44:0 45:0 46:0 47:0 48:0 49:0 50:0 51:0 52:0 53:0 54:0 55:0 56:0 
-0 -1 -1 1:0 2:0 3:0 4:0 5:0 6:0 7:0 8:0 9:0 10:0 11:0 12:0 13:0 14:0 15:0 16:0 17:0 18:0 19:0 20:0 21:0 22:0 23:0 24:0 25:0 26:0 27:0 28:0 29:0 30:0 31:0 32:0 33:0 34:0 35:0 36:0 37:0 38:0 39:0 40:0 41:0 42:0 43:0 44:0 45:0 46:0 47:0 48:0 49:0 50:0 51:0 52:0 53:0 54:0 55:0 56:0 
-1 -1 -1 1:0 2:0 3:0 4:0 5:0 6:0 7:0 8:0 9:0 10:0 11:0 12:0 13:0 14:0 15:0 16:0 17:0 18:0 19:0 20:0 21:0 22:0 23:0 24:0 25:0 26:0 27:0 28:0 29:0 30:0 31:0 32:0 33:0 34:0 35:0 36:0 37:0 38:0 39:0 40:0 41:0 42:0 43:0 44:0 45:0 46:0 47:0 48:0 49:0 50:0 51:0 52:0 53:0 54:0 55:0 56:0 
-1 -1 -1 1:0 2:0 3:0 4:0 5:0 6:0 7:0 8:0 9:0 10:0 11:0 12:0 13:0 14:0 15:0 16:0 17:0 18:0 19:0 20:0 21:0 22:0 23:0 24:0 25:0 26:0 27:0 28:0 29:0 30:0 31:0 32:0 33:0 34:0 35:0 36:0 37:0 38:0 39:0 40:0 41:0 42:0 43:0 44:0 45:0 46:0 47:0 48:0 49:0 50:0 51:0 52:0 53:0 54:0 55:0 56:0 
-1 -1 -1 1:0 2:0 3:0 4:0 5:0 6:0 7:0 8:0 9:0 10:0 11:0 12:0 13:0 14:0 15:0 16:0 17:0 18:0 19:0 20:0 21:0 22:0 23:0 24:0 25:0 26:0 27:0 28:0 29:0 30:0 31:0 32:0 33:0 34:0 35:0 36:0 37:0 38:0 39:0 40:0 41:0 42:0 43:0 44:0 45:0 46:0 47:0 48:0 49:0 50:0 51:0 52:0 53:0 54:0 55:0 56:0 
-1 -1 -1 1:0 2:0 3:0 4:0 5:0 6:0 7:0 8:0 9:0 10:0 11:0 12:0 13:0 14:0 15:0 16:0 17:0 18:0 19:0 20:0 21:0 22:0 23:0 24:0 25:0 26:0 27:0 28:0 29:0 30:0 31:0 32:0 33:0 34:0 35:0 36:0 37:0 38:0 39:0 40:0 41:0 42:0 43:0 44:0 45:0 46:0 47:0 48:0 49:0 50:0 51:0 52:0 53:0 54:0 55:0 56:0 
-1 -1 -1 1:0 2:0 3:0 4:0 5:0 6:0 7:0 8:0 9:0 10:0 11:0 12:0 13:0 14:0 15:0 16:0 17:0 18:0 19:0 20:0 21:0 22:0 23:0 24:0 25:0 26:0 27:0 28:0 29:0 30:0 31:0 32:0 33:0 34:0 35:0 36:0 37:0 38:0 39:0 40:0 41:0 42:0 43:0 44:0 45:0 46:0 47:0 48:0 49:0 50:0 51:0 52:0 53:0 54:0 55:0 56:0 
-1 -1 -1 1:0 2:0 3:0 4:0 5:0 6:0 7:0 8:0 9:0 10:0 11:0 12:0 13:0 14:0 15:0 16:0 17:0 18:0 19:0 20:0 21:0 22:0 23:0 24:0 25:0 26:0 27:0 28:0 29:0 30:0 31:0 32:0 33:0 34:0 35:0 36:0 37:0 38:0 39:0 40:0 41:0 42:0 43:0 44:0 45:0 46:0 47:0 48:0 49:0 50:0 51:0 52:0 53:0 54:0 55:0 56:0 
-1 -1 -1 1:0 2:0 3:0 4:0 5:0 6:0 7:0 8:0 9:0 10:0 11:0 12:0 13:0 14:0 15:0 16:0 17:0 18:0 19:0 20:0 21:0 22:0 23:0 24:0 25:0 26:0 27:0 28:0 29:0 30:0 31:0 32:0 33:0 34:0 35:0 36:0 37:0 38:0 39:0 40:0 41:0 42:0 43:0 44:0 45:0 46:0 47:0 48:0 49:0 50:0 51:0 52:0 53:0 54:0 55:0 56:0 
-1 -1 -1 1:0 2:0 3:0 4:0 5:0 6:0 7:0 8:0 9:0 10:0 11:0 12:0 13:0 14:0 15:0 16:0 17:0 18:0 19:0 20:0 21:0 22:0 23:0 24:0 25:0 26:0 27:0 28:0 29:0 30:0 31:0 32:0 33:0 34:0 35:0 36:0 37:0 38:0 39:0 40:0 41:0 42:0 43:0 44:0 45:0 46:0 47:0 48:0 49:0 50:0 51:0 52:0 53:0 54:0 55:0 56:0 
-1 -1 -1 1:0 2:0 3:0 4:0 5:0 6:0 7:0 8:0 9:0 10:0 11:0 12:0 13:0 14:0 15:0 16:0 17:0 18:0 19:0 20:0 21:0 22:0 23:0 24:0 25:0 26:0 27:0 28:0 29:0 30:0 31:0 32:0 33:0 34:0 35:0 36:0 37:0 38:0 39:0 40:0 41:0 42:0 43:0 44:0 45:0 46:0 47:0 48:0 49:0 50:0 51:0 52:0 53:0 54:0 55:0 56:0 
-1 -1 -1 1:0 2:0 3:0 4:0 5:0 6:0 7:0 8:0 9:0 10:0 11:0 12:0 13:0 14:0 15:0 16:0 17:0 18:0 19:0 20:0 21:0 22:0 23:0 24:0 25:0 26:0 27:0 28:0 29:0 30:0 31:0 32:0 33:0 34:0 35:0 36:0 37:0 38:0 39:0 40:0 41:0 42:0 43:0 44:0 45:0 46:0 47:0 48:0 49:0 50:0 51:0 52:0 53:0 54:0 55:0 56:0 
-1 -1 -1 1:0 2:0 3:0 4:0 5:0 6:0 7:0 8:0 9:0 10:0 11:0 12:0 13:0 14:0 15:0 16:0 17:0 18:0 19:0 20:0 21:0 22:0 23:0 24:0 25:0 26:0 27:0 28:0 29:0 30:0 31:0 32:0 33:0 34:0 35:0 36:0 37:0 38:0 39:0 40:0 41:0 42:0 43:0 44:0 45:0 46:0 47:0 48:0 49:0 50:0 51:0 52:0 53:0 54:0 55:0 56:0 
-1 -1 -0.9643415540206113 1:0 2:0 3:0 4:0 5:0 6:0 7:0 8:0 9:0 10:0 11:0 12:0 13:0 14:0 15:0 16:0 17:0 18:0 19:0 20:0 21:0 22:0 23:0 24:0 25:0 26:0 27:0 28:0 29:0 30:0 31:0 32:0 33:0 34:0 35:0 36:0 37:0 38:0 39:0 40:0 41:0 42:0 43:0 44:0 45:0 46:0 47:0 48:0 49:0 50:0 51:0 52:0 53:0 54:0 55:0 56:0 
